%YAML:1.0
---
opencv_ml_svm:
   format: 3
   svmType: C_SVC
   kernel:
      type: RBF
      gamma: 5.0624999999999998e-01
   C: 1.2500000000000000e+01
   term_criteria: { epsilon:1.1920928955078125e-07, iterations:1000 }
   var_count: 324
   class_count: 6
   class_labels: !!opencv-matrix
      rows: 6
      cols: 1
      dt: i
      data: [ 0, 1, 2, 3, 4, 5 ]
   sv_total: 583
   support_vectors:
      - [ 4.28366095e-01, 4.28366095e-01, 4.28366095e-01, 1.44372374e-01,
          1.60462901e-01, 4.28366095e-01, 4.28366095e-01, 9.42422375e-02,
          1.50864407e-01, 3.84404868e-01, 3.84404868e-01, 3.84404868e-01,
          1.36201769e-01, 8.23033378e-02, 3.84404868e-01, 3.84404868e-01,
          2.90227890e-01, 3.84404868e-01, 3.85984540e-01, 3.85984540e-01,
          3.14115077e-01, 1.18604757e-01, 2.20743679e-02, 3.71484607e-01,
          3.85984540e-01, 3.85984540e-01, 3.85984540e-01, 4.07468945e-01,
          4.07468945e-01, 3.90040904e-01, 6.11557141e-02, 2.74748914e-02,
          9.56458375e-02, 4.07468945e-01, 4.07468945e-01, 4.07468945e-01,
          3.93965811e-01, 3.93965811e-01, 3.93965811e-01, 3.93965811e-01,
          3.19441110e-01, 1.56746551e-01, 4.68047187e-02, 3.02019805e-01,
          3.93965811e-01, 3.51482928e-01, 3.51482928e-01, 2.39325449e-01,
          3.47575784e-01, 3.51482928e-01, 3.51482928e-01, 3.51482928e-01,
          2.77779222e-01, 3.51482928e-01, 1.22165024e-01, 2.21035004e-01,
          5.15852273e-01, 2.44919285e-01, 2.30296761e-01, 7.55097717e-03,
          5.15852273e-01, 5.15852273e-01, 1.40276834e-01, 4.69784230e-01,
          1.02119222e-01, 2.34722316e-01, 4.69784230e-01, 4.69784230e-01,
          1.05696537e-01, 2.71712150e-02, 1.87312171e-01, 4.69784230e-01,
          4.82762188e-01, 3.03644985e-02, 2.96012089e-02, 4.82762188e-01,
          4.82762188e-01, 1.11407518e-01, 8.05198215e-03, 2.20604122e-01,
          4.82762188e-01, 1.22165024e-01, 2.21035004e-01, 5.15852273e-01,
          2.44919285e-01, 2.30296761e-01, 7.55097717e-03, 5.15852273e-01,
          5.15852273e-01, 1.40276834e-01, 4.69784230e-01, 1.02119222e-01,
          2.34722316e-01, 4.69784230e-01, 4.69784230e-01, 1.05696537e-01,
          2.71712150e-02, 1.87312171e-01, 4.69784230e-01, 4.82762188e-01,
          3.03644985e-02, 2.96012089e-02, 4.82762188e-01, 4.82762188e-01,
          1.11407518e-01, 8.05198215e-03, 2.20604122e-01, 4.82762188e-01,
          2.41702818e-03, 1.27631789e-02, 4.91204597e-02, 8.57003033e-02,
          7.43238851e-02, 1.58123616e-02, 6.86557889e-01, 6.86557889e-01,
          1.86340094e-01, 3.03344369e-01, 2.49540418e-01, 3.96074533e-01,
          3.96074533e-01, 3.96074533e-01, 1.25001013e-01, 2.04339102e-01,
          3.96074533e-01, 3.96074533e-01, 3.74998420e-01, 3.74998420e-01,
          2.32744977e-01, 3.74998420e-01, 3.74998420e-01, 2.73337871e-01,
          2.43190899e-01, 3.24205041e-01, 3.74998420e-01, 1.13121409e-03,
          2.15102592e-03, 1.42522920e-02, 6.97662681e-02, 8.22247714e-02,
          2.58920491e-02, 2.98079163e-01, 7.29153156e-01, 5.99748790e-01,
          3.50715667e-02, 1.40006348e-01, 2.45158315e-01, 2.41169721e-01,
          9.00116116e-02, 5.10290153e-02, 7.29332343e-02, 6.47461772e-01,
          6.47461772e-01, 2.15557411e-01, 3.50852400e-01, 3.50852400e-01,
          3.50852400e-01, 3.50852400e-01, 3.50852400e-01, 2.97233492e-01,
          3.50852400e-01, 3.50852400e-01, 3.85984540e-01, 3.85984540e-01,
          3.14115077e-01, 1.18604757e-01, 2.20743679e-02, 3.71484607e-01,
          3.85984540e-01, 3.85984540e-01, 3.85984540e-01, 3.79185081e-01,
          3.79185081e-01, 2.66465276e-01, 3.79185081e-01, 1.87530190e-01,
          1.65385887e-01, 3.79185081e-01, 3.79185081e-01, 3.79185081e-01,
          9.59957242e-02, 8.31975862e-02, 4.06062782e-01, 5.06861448e-01,
          1.85487401e-02, 5.98064102e-02, 1.98159948e-01, 5.06861448e-01,
          5.06861448e-01, 3.51482928e-01, 3.51482928e-01, 2.39325449e-01,
          3.47575784e-01, 3.51482928e-01, 3.51482928e-01, 3.51482928e-01,
          2.77779222e-01, 3.51482928e-01, 3.49076957e-01, 3.49076957e-01,
          2.72727013e-01, 3.49076957e-01, 3.49076957e-01, 2.62962461e-01,
          3.49076957e-01, 3.49076957e-01, 3.49076957e-01, 3.16270262e-01,
          2.89525449e-01, 3.75791878e-01, 3.75791878e-01, 2.39291176e-01,
          2.21440509e-01, 3.75791878e-01, 3.75791878e-01, 3.75791878e-01,
          4.82762188e-01, 3.03644985e-02, 2.96012089e-02, 4.82762188e-01,
          4.82762188e-01, 1.11407518e-01, 8.05198215e-03, 2.20604122e-01,
          4.82762188e-01, 5.25928259e-01, 3.27634625e-02, 1.83064304e-02,
          3.40020299e-01, 5.25928259e-01, 8.39069933e-02, 5.25307059e-02,
          1.95253029e-01, 5.25928259e-01, 5.14914274e-01, 2.04451624e-02,
          2.24588774e-02, 9.33612585e-02, 3.81037027e-01, 7.58155435e-02,
          1.97158337e-01, 5.14914274e-01, 5.14914274e-01, 4.82762188e-01,
          3.03644985e-02, 2.96012089e-02, 4.82762188e-01, 4.82762188e-01,
          1.11407518e-01, 8.05198215e-03, 2.20604122e-01, 4.82762188e-01,
          5.25928259e-01, 3.27634625e-02, 1.83064304e-02, 3.40020299e-01,
          5.25928259e-01, 8.39069933e-02, 5.25307059e-02, 1.95253029e-01,
          5.25928259e-01, 5.14914274e-01, 2.04451624e-02, 2.24588774e-02,
          9.33612585e-02, 3.81037027e-01, 7.58155435e-02, 1.97158337e-01,
          5.14914274e-01, 5.14914274e-01, 3.74998420e-01, 3.74998420e-01,
          2.32744977e-01, 3.74998420e-01, 3.74998420e-01, 2.73337871e-01,
          2.43190899e-01, 3.24205041e-01, 3.74998420e-01, 4.28307295e-01,
          2.14301556e-01, 8.31456259e-02, 4.28307295e-01, 4.28307295e-01,
          1.04777217e-01, 3.82948071e-01, 2.26863399e-01, 4.28307295e-01,
          3.18501741e-01, 4.80673164e-02, 3.38408016e-02, 4.89199251e-01,
          4.89199251e-01, 1.68278202e-01, 3.03534955e-01, 2.41167814e-01,
          4.82669890e-01, 2.15557411e-01, 3.50852400e-01, 3.50852400e-01,
          3.50852400e-01, 3.50852400e-01, 3.50852400e-01, 2.97233492e-01,
          3.50852400e-01, 3.50852400e-01, 3.47651184e-01, 3.44082803e-01,
          3.47651184e-01, 3.47651184e-01, 3.47651184e-01, 2.41679773e-01,
          3.47651184e-01, 3.07500213e-01, 3.47651184e-01, 4.08934563e-01,
          4.08934563e-01, 1.21272936e-01, 2.87255287e-01, 3.82355869e-01,
          1.39163315e-01, 4.08934563e-01, 4.08934563e-01, 2.53416121e-01 ]
      - [ 6.18796051e-01, 6.18796051e-01, 2.05556363e-01, 1.52424857e-01,
          1.43650368e-01, 1.16319299e-01, 6.67753965e-02, 2.08259314e-01,
          2.83762664e-01, 4.01138544e-01, 4.01138544e-01, 4.01138544e-01,
          4.01138544e-01, 2.49112491e-02, 4.84441444e-02, 1.65989339e-01,
          4.01138544e-01, 4.01138544e-01, 3.87017369e-01, 1.50475308e-01,
          2.46512204e-01, 3.87017369e-01, 3.87017369e-01, 1.18439019e-01,
          3.87017369e-01, 3.87017369e-01, 3.87017369e-01, 5.76108932e-01,
          5.76108932e-01, 5.39849937e-01, 1.99920125e-02, 2.18571480e-02,
          4.53329161e-02, 6.22553192e-02, 1.69363961e-01, 5.92778586e-02,
          1.19199246e-01, 2.48454571e-01, 2.87840277e-01, 4.68220234e-01,
          2.64528878e-02, 2.33090781e-02, 2.40390912e-01, 5.28050780e-01,
          5.28050780e-01, 1.21009022e-01, 2.47710645e-01, 4.12356377e-01,
          4.12356377e-01, 1.25727981e-01, 4.12356377e-01, 4.12356377e-01,
          4.12356377e-01, 2.32121497e-01, 1.19127989e-01, 6.55807495e-01,
          6.55807495e-01, 7.24090710e-02, 1.46047212e-02, 2.34683659e-02,
          2.77554482e-01, 1.88108459e-01, 2.58051567e-02, 1.57737508e-02,
          2.78047565e-02, 3.35662849e-02, 5.53922541e-02, 7.92631879e-02,
          5.10752082e-01, 5.10752082e-01, 5.10752082e-01, 4.48103040e-01,
          2.89820433e-01, 3.65216643e-01, 3.61932516e-01, 3.65216643e-01,
          1.26368910e-01, 3.65216643e-01, 3.65216643e-01, 3.65216643e-01,
          3.13807368e-01, 1.19127989e-01, 6.55807495e-01, 6.55807495e-01,
          7.24090710e-02, 1.46047212e-02, 2.34683659e-02, 2.77554482e-01,
          1.88108459e-01, 2.58051567e-02, 1.57737508e-02, 2.78047565e-02,
          3.35662849e-02, 5.53922541e-02, 7.92631879e-02, 5.10752082e-01,
          5.10752082e-01, 5.10752082e-01, 4.48103040e-01, 2.89820433e-01,
          3.65216643e-01, 3.61932516e-01, 3.65216643e-01, 1.26368910e-01,
          3.65216643e-01, 3.65216643e-01, 3.65216643e-01, 3.13807368e-01,
          3.21545429e-03, 4.57376629e-01, 5.90546727e-01, 5.90546727e-01,
          7.55643025e-02, 2.49892827e-02, 2.52605051e-01, 1.31131351e-01,
          8.34697206e-03, 1.79553367e-02, 3.43370903e-03, 2.24012472e-02,
          2.53091399e-02, 3.44450235e-01, 5.30765295e-01, 5.30765295e-01,
          5.30765295e-01, 1.71585277e-01, 2.16526046e-01, 3.69899601e-01,
          3.69899601e-01, 2.42008343e-01, 3.32556427e-01, 3.69899601e-01,
          3.69899601e-01, 3.69899601e-01, 3.10049206e-01, 7.10312836e-03,
          1.53533235e-01, 6.61279142e-01, 6.61279142e-01, 2.89311528e-01,
          6.47854209e-02, 8.12289044e-02, 2.56693717e-02, 6.28485763e-03,
          1.32500261e-01, 6.11317484e-03, 3.19588482e-02, 4.03599024e-01,
          4.03599024e-01, 4.03599024e-01, 4.03599024e-01, 4.03599024e-01,
          4.03599024e-01, 3.83805245e-01, 3.83805245e-01, 3.83805245e-01,
          1.22972280e-01, 3.83805245e-01, 3.13351303e-01, 1.77756637e-01,
          3.38710576e-01, 3.83805245e-01, 3.87017369e-01, 1.50475308e-01,
          2.46512204e-01, 3.87017369e-01, 3.87017369e-01, 1.18439019e-01,
          3.87017369e-01, 3.87017369e-01, 3.87017369e-01, 4.06116307e-01,
          3.92423242e-01, 8.43476877e-02, 4.06116307e-01, 4.06116307e-01,
          1.44508198e-01, 2.14792922e-01, 3.28773409e-01, 4.06116307e-01,
          4.11118597e-01, 3.03106755e-01, 4.11118597e-01, 2.16645971e-01,
          4.11118597e-01, 4.81247455e-02, 9.83636081e-02, 4.11118597e-01,
          4.11118597e-01, 1.21009022e-01, 2.47710645e-01, 4.12356377e-01,
          4.12356377e-01, 1.25727981e-01, 4.12356377e-01, 4.12356377e-01,
          4.12356377e-01, 2.32121497e-01, 4.21308368e-01, 4.21308368e-01,
          4.21308368e-01, 3.51320446e-01, 2.00733215e-01, 2.56565124e-01,
          4.21308368e-01, 2.28365675e-01, 6.39680773e-02, 3.82903039e-01,
          3.82903039e-01, 3.82903039e-01, 1.89050153e-01, 3.03455651e-01,
          1.88295141e-01, 3.15944076e-01, 3.82903039e-01, 3.82903039e-01,
          2.89820433e-01, 3.65216643e-01, 3.61932516e-01, 3.65216643e-01,
          1.26368910e-01, 3.65216643e-01, 3.65216643e-01, 3.65216643e-01,
          3.13807368e-01, 4.16207314e-01, 4.16207314e-01, 4.16207314e-01,
          4.16207314e-01, 1.01720206e-01, 4.16207314e-01, 1.25740767e-01,
          2.64528483e-01, 1.83211893e-01, 1.71680510e-01, 4.44841385e-01,
          4.44841385e-01, 2.56430477e-01, 1.32089049e-01, 2.52445549e-01,
          4.44841385e-01, 4.44841385e-01, 1.66174680e-01, 2.89820433e-01,
          3.65216643e-01, 3.61932516e-01, 3.65216643e-01, 1.26368910e-01,
          3.65216643e-01, 3.65216643e-01, 3.65216643e-01, 3.13807368e-01,
          4.16207314e-01, 4.16207314e-01, 4.16207314e-01, 4.16207314e-01,
          1.01720206e-01, 4.16207314e-01, 1.25740767e-01, 2.64528483e-01,
          1.83211893e-01, 1.71680510e-01, 4.44841385e-01, 4.44841385e-01,
          2.56430477e-01, 1.32089049e-01, 2.52445549e-01, 4.44841385e-01,
          4.44841385e-01, 1.66174680e-01, 2.16526046e-01, 3.69899601e-01,
          3.69899601e-01, 2.42008343e-01, 3.32556427e-01, 3.69899601e-01,
          3.69899601e-01, 3.69899601e-01, 3.10049206e-01, 1.94090411e-01,
          4.35088813e-01, 4.54546899e-01, 4.54546899e-01, 9.35928524e-02,
          1.23104230e-01, 1.78254098e-01, 4.54546899e-01, 3.04891557e-01,
          2.89721787e-02, 3.78881879e-02, 4.77109671e-01, 4.77109671e-01,
          6.98576048e-02, 4.77109671e-01, 4.77109671e-01, 2.62170911e-01,
          9.38691050e-02, 3.83805245e-01, 3.83805245e-01, 3.83805245e-01,
          1.22972280e-01, 3.83805245e-01, 3.13351303e-01, 1.77756637e-01,
          3.38710576e-01, 3.83805245e-01, 1.65192530e-01, 3.52670342e-01,
          3.61108750e-01, 3.35476309e-01, 3.61108750e-01, 3.07696491e-01,
          3.40452164e-01, 3.61108750e-01, 3.61108750e-01, 1.03219584e-01,
          3.67739946e-01, 3.85838389e-01, 3.85838389e-01, 3.85838389e-01,
          3.85838389e-01, 3.85838389e-01, 3.10478777e-01, 9.74936709e-02 ]
      - [ 4.82573122e-01, 4.82573122e-01, 1.09844334e-01, 6.81458712e-02,
          2.83831894e-01, 4.82573122e-01, 3.32561553e-01, 3.48479412e-02,
          2.95749694e-01, 6.61408842e-01, 6.61408842e-01, 8.88392553e-02,
          5.86730018e-02, 6.79133236e-02, 8.39588866e-02, 1.73476543e-02,
          3.80858704e-02, 3.06146622e-01, 6.88684344e-01, 1.64962083e-01,
          4.42376137e-02, 7.60568976e-02, 8.98164436e-02, 2.53751688e-02,
          3.48786707e-03, 2.95931529e-02, 6.88684344e-01, 3.35073143e-01,
          4.13961083e-01, 4.13961083e-01, 4.13961083e-01, 4.13961083e-01,
          1.18989788e-01, 4.13961083e-01, 1.12095706e-01, 6.90764328e-03,
          1.88538194e-01, 3.05941820e-01, 3.86519670e-01, 4.21551466e-01,
          4.21551466e-01, 4.21551466e-01, 4.16416913e-01, 8.48519430e-02,
          5.93673959e-02, 8.19400251e-02, 1.49293512e-01, 3.31702501e-01,
          4.44563955e-01, 4.44563955e-01, 4.44563955e-01, 4.31833237e-01,
          5.85747957e-02, 2.71491617e-01, 3.74571651e-01, 4.39129204e-01,
          4.39129204e-01, 3.69588792e-01, 1.07051060e-01, 1.58392474e-01,
          4.39129204e-01, 3.11318487e-01, 8.21171030e-02, 4.07344908e-01,
          1.68127224e-01, 1.03794999e-01, 4.07344908e-01, 4.07344908e-01,
          4.07344908e-01, 3.32673222e-01, 1.28722891e-01, 4.07344908e-01,
          3.28513026e-01, 3.47920388e-01, 3.47920388e-01, 3.47920388e-01,
          3.47920388e-01, 3.47920388e-01, 3.47920388e-01, 2.03132421e-01,
          3.47920388e-01, 3.74571651e-01, 4.39129204e-01, 4.39129204e-01,
          3.69588792e-01, 1.07051060e-01, 1.58392474e-01, 4.39129204e-01,
          3.11318487e-01, 8.21171030e-02, 4.07344908e-01, 1.68127224e-01,
          1.03794999e-01, 4.07344908e-01, 4.07344908e-01, 4.07344908e-01,
          3.32673222e-01, 1.28722891e-01, 4.07344908e-01, 3.28513026e-01,
          3.47920388e-01, 3.47920388e-01, 3.47920388e-01, 3.47920388e-01,
          3.47920388e-01, 3.47920388e-01, 2.03132421e-01, 3.47920388e-01,
          3.75220627e-01, 3.75220627e-01, 3.75220627e-01, 3.75220627e-01,
          6.97820410e-02, 3.75220627e-01, 3.75220627e-01, 1.67575940e-01,
          3.44321132e-01, 4.86624807e-01, 4.86624807e-01, 2.50650030e-02,
          2.76060682e-02, 7.84902945e-02, 4.86624807e-01, 3.78073007e-01,
          7.35046640e-02, 3.58936250e-01, 5.19331336e-01, 5.19331336e-01,
          6.60406947e-02, 5.89436069e-02, 1.37229651e-01, 3.36138725e-01,
          1.44652531e-01, 1.58483997e-01, 5.19331336e-01, 1.42224252e-01,
          2.25317895e-01, 4.73094910e-01, 4.73094910e-01, 4.73094910e-01,
          4.73094910e-01, 1.65862501e-01, 1.43517536e-04, 3.86419855e-02,
          4.01801974e-01, 4.01801974e-01, 4.01801974e-01, 4.01801974e-01,
          4.01801974e-01, 4.01801974e-01, 1.62668034e-01, 4.45994642e-03,
          2.89181191e-02, 4.70434189e-01, 4.70434189e-01, 1.27312709e-02,
          4.70434189e-01, 4.70434189e-01, 3.25828254e-01, 2.74461526e-02,
          3.57038528e-02, 4.13963757e-02, 6.88684344e-01, 1.64962083e-01,
          4.42376137e-02, 7.60568976e-02, 8.98164436e-02, 2.53751688e-02,
          3.48786707e-03, 2.95931529e-02, 6.88684344e-01, 4.87284750e-01,
          9.84632298e-02, 6.91777021e-02, 6.41843602e-02, 1.42355442e-01,
          4.87284750e-01, 1.53172851e-01, 4.69538599e-01, 4.87284750e-01,
          3.56312364e-01, 3.69897455e-01, 1.83589563e-01, 3.30830514e-01,
          2.05113500e-01, 3.69897455e-01, 3.69897455e-01, 3.69897455e-01,
          3.69897455e-01, 8.19400251e-02, 1.49293512e-01, 3.31702501e-01,
          4.44563955e-01, 4.44563955e-01, 4.44563955e-01, 4.31833237e-01,
          5.85747957e-02, 2.71491617e-01, 2.13239878e-01, 5.62499762e-01,
          1.96787700e-01, 1.72907814e-01, 3.39416414e-01, 5.62499762e-01,
          3.62000704e-01, 1.98766068e-02, 2.88831387e-02, 4.01112705e-01,
          4.01112705e-01, 8.56331959e-02, 3.49842250e-01, 4.01112705e-01,
          4.01112705e-01, 1.67500570e-01, 4.01112705e-01, 1.83730140e-01,
          3.28513026e-01, 3.47920388e-01, 3.47920388e-01, 3.47920388e-01,
          3.47920388e-01, 3.47920388e-01, 3.47920388e-01, 2.03132421e-01,
          3.47920388e-01, 3.32778692e-01, 3.32778692e-01, 3.32778692e-01,
          3.32778692e-01, 3.32778692e-01, 3.32778692e-01, 3.32778692e-01,
          3.32778692e-01, 3.32778692e-01, 2.90606111e-01, 3.76773983e-01,
          3.76773983e-01, 3.76773983e-01, 3.76773983e-01, 3.76773983e-01,
          1.51984945e-01, 3.11988175e-01, 2.85578042e-01, 3.28513026e-01,
          3.47920388e-01, 3.47920388e-01, 3.47920388e-01, 3.47920388e-01,
          3.47920388e-01, 3.47920388e-01, 2.03132421e-01, 3.47920388e-01,
          3.32778692e-01, 3.32778692e-01, 3.32778692e-01, 3.32778692e-01,
          3.32778692e-01, 3.32778692e-01, 3.32778692e-01, 3.32778692e-01,
          3.32778692e-01, 2.90606111e-01, 3.76773983e-01, 3.76773983e-01,
          3.76773983e-01, 3.76773983e-01, 3.76773983e-01, 1.51984945e-01,
          3.11988175e-01, 2.85578042e-01, 5.19331336e-01, 5.19331336e-01,
          6.60406947e-02, 5.89436069e-02, 1.37229651e-01, 3.36138725e-01,
          1.44652531e-01, 1.58483997e-01, 5.19331336e-01, 4.57096487e-01,
          4.57096487e-01, 3.26782048e-01, 1.32130548e-01, 1.56821981e-01,
          4.52687964e-02, 9.37986821e-02, 4.57096487e-01, 4.57096487e-01,
          4.15130705e-01, 4.15130705e-01, 2.23211884e-01, 1.11880027e-01,
          2.81507075e-02, 4.15130705e-01, 3.48302424e-01, 3.49386901e-01,
          4.15130705e-01, 4.70434189e-01, 4.70434189e-01, 1.27312709e-02,
          4.70434189e-01, 4.70434189e-01, 3.25828254e-01, 2.74461526e-02,
          3.57038528e-02, 4.13963757e-02, 7.24163130e-02, 1.39567358e-02,
          1.54612884e-01, 2.95713335e-01, 6.58294499e-01, 6.58294499e-01,
          9.22659189e-02, 2.29928754e-02, 2.98748184e-02, 4.18439694e-02,
          1.15054185e-02, 9.71313789e-02, 1.61558807e-01, 5.52658677e-01,
          7.17907786e-01, 3.66052926e-01, 3.13188997e-03, 2.42245980e-02 ]
      - [ 4.01462764e-01, 4.01462764e-01, 4.01462764e-01, 9.41094831e-02,
          2.88945884e-01, 4.01462764e-01, 4.01462764e-01, 1.20820560e-01,
          2.88415968e-01, 6.54029131e-01, 6.54029131e-01, 9.50987190e-02,
          4.43316586e-02, 5.88745289e-02, 1.69908568e-01, 3.73282693e-02,
          3.00707072e-02, 3.03842753e-01, 6.15519702e-01, 4.38586414e-01,
          1.53678119e-01, 1.04575589e-01, 8.01896080e-02, 3.19049060e-02,
          2.49807052e-02, 3.37913968e-02, 6.15519702e-01, 3.70458215e-01,
          4.02569205e-01, 4.02569205e-01, 4.02569205e-01, 4.02569205e-01,
          9.54253227e-02, 4.02569205e-01, 1.95669606e-01, 3.21981311e-02,
          2.37619892e-01, 3.86510640e-01, 2.81740844e-01, 4.18441147e-01,
          4.18441147e-01, 4.18441147e-01, 4.08087075e-01, 1.02918692e-01,
          9.04545039e-02, 1.42084450e-01, 1.44049495e-01, 2.22463578e-01,
          4.73108500e-01, 4.73108500e-01, 4.73108500e-01, 4.34372663e-01,
          1.49655759e-01, 1.49247721e-01, 2.48026937e-01, 4.53584820e-01,
          4.53584820e-01, 3.03551584e-01, 9.72162411e-02, 9.43017602e-02,
          4.53584820e-01, 4.53584820e-01, 2.25359239e-02, 3.87371719e-01,
          2.62403905e-01, 6.62384108e-02, 3.87371719e-01, 3.87371719e-01,
          3.87371719e-01, 3.87371719e-01, 1.50152415e-01, 3.87371719e-01,
          3.44411790e-01, 3.44411790e-01, 3.44411790e-01, 3.44411790e-01,
          3.44411790e-01, 3.44411790e-01, 3.44411790e-01, 2.18181044e-01,
          3.44411790e-01, 2.48026937e-01, 4.53584820e-01, 4.53584820e-01,
          3.03551584e-01, 9.72162411e-02, 9.43017602e-02, 4.53584820e-01,
          4.53584820e-01, 2.25359239e-02, 3.87371719e-01, 2.62403905e-01,
          6.62384108e-02, 3.87371719e-01, 3.87371719e-01, 3.87371719e-01,
          3.87371719e-01, 1.50152415e-01, 3.87371719e-01, 3.44411790e-01,
          3.44411790e-01, 3.44411790e-01, 3.44411790e-01, 3.44411790e-01,
          3.44411790e-01, 3.44411790e-01, 2.18181044e-01, 3.44411790e-01,
          4.07037973e-01, 4.07037973e-01, 4.07037973e-01, 4.07037973e-01,
          3.32717411e-02, 1.95576310e-01, 4.07037973e-01, 3.13147068e-01,
          1.73539698e-01, 4.62206423e-01, 4.62206423e-01, 6.53478727e-02,
          2.39981283e-02, 4.54067700e-02, 4.62206423e-01, 4.62206423e-01,
          1.12132236e-01, 3.48371238e-01, 5.41371703e-01, 5.41371703e-01,
          1.03667647e-01, 1.43918563e-02, 1.46767059e-02, 3.20584297e-01,
          2.03860283e-01, 1.89304948e-01, 4.65926945e-01, 1.03598632e-01,
          2.18131393e-01, 4.70066160e-01, 4.70066160e-01, 4.70066160e-01,
          4.70066160e-01, 2.27167025e-01, 1.58635546e-02, 3.58535685e-02,
          4.06452000e-01, 4.06452000e-01, 2.94183731e-01, 4.05161738e-01,
          4.06452000e-01, 4.06452000e-01, 2.90365010e-01, 2.97461567e-03,
          1.02863126e-02, 5.16103625e-01, 5.16103625e-01, 9.19834152e-02,
          3.55504006e-01, 5.16103625e-01, 2.40301013e-01, 3.42302211e-02,
          2.90484969e-02, 3.39508168e-02, 6.15519702e-01, 4.38586414e-01,
          1.53678119e-01, 1.04575589e-01, 8.01896080e-02, 3.19049060e-02,
          2.49807052e-02, 3.37913968e-02, 6.15519702e-01, 4.27493960e-01,
          1.19513325e-01, 3.23267356e-02, 4.13256101e-02, 3.12375557e-02,
          5.12012243e-01, 4.84684795e-01, 1.86790913e-01, 5.12012243e-01,
          4.06523317e-01, 4.06523317e-01, 5.11573963e-02, 3.74817774e-02,
          1.86982062e-02, 4.06523317e-01, 4.06523317e-01, 4.06523317e-01,
          4.06523317e-01, 1.42084450e-01, 1.44049495e-01, 2.22463578e-01,
          4.73108500e-01, 4.73108500e-01, 4.73108500e-01, 4.34372663e-01,
          1.49655759e-01, 1.49247721e-01, 1.39855921e-01, 4.89324242e-01,
          1.62908971e-01, 1.51505157e-01, 4.52470481e-01, 4.89324242e-01,
          4.89324242e-01, 5.41266389e-02, 9.28485487e-03, 3.96742731e-01,
          3.96742731e-01, 1.90107048e-01, 3.96742731e-01, 3.96742731e-01,
          3.96742731e-01, 1.93015233e-01, 3.63369197e-01, 5.98321557e-02,
          3.44411790e-01, 3.44411790e-01, 3.44411790e-01, 3.44411790e-01,
          3.44411790e-01, 3.44411790e-01, 3.44411790e-01, 2.18181044e-01,
          3.44411790e-01, 3.63633364e-01, 3.63633364e-01, 3.11736047e-01,
          1.66681498e-01, 3.63633364e-01, 3.63633364e-01, 2.79337943e-01,
          3.63633364e-01, 3.63633364e-01, 3.55385393e-01, 3.55385393e-01,
          3.55385393e-01, 3.55385393e-01, 3.55385393e-01, 2.81916946e-01,
          1.81330428e-01, 3.55385393e-01, 3.55385393e-01, 3.44411790e-01,
          3.44411790e-01, 3.44411790e-01, 3.44411790e-01, 3.44411790e-01,
          3.44411790e-01, 3.44411790e-01, 2.18181044e-01, 3.44411790e-01,
          3.63633364e-01, 3.63633364e-01, 3.11736047e-01, 1.66681498e-01,
          3.63633364e-01, 3.63633364e-01, 2.79337943e-01, 3.63633364e-01,
          3.63633364e-01, 3.55385393e-01, 3.55385393e-01, 3.55385393e-01,
          3.55385393e-01, 3.55385393e-01, 2.81916946e-01, 1.81330428e-01,
          3.55385393e-01, 3.55385393e-01, 5.41371703e-01, 5.41371703e-01,
          1.03667647e-01, 1.43918563e-02, 1.46767059e-02, 3.20584297e-01,
          2.03860283e-01, 1.89304948e-01, 4.65926945e-01, 4.94114310e-01,
          4.94114310e-01, 1.04396217e-01, 1.08969752e-02, 3.13111879e-02,
          6.41966239e-02, 4.84799296e-02, 4.94114310e-01, 4.94114310e-01,
          4.17187274e-01, 4.17187274e-01, 6.86483160e-02, 1.91714335e-02,
          1.60608627e-02, 4.17187274e-01, 4.17187274e-01, 3.46797198e-01,
          4.17187274e-01, 5.16103625e-01, 5.16103625e-01, 9.19834152e-02,
          3.55504006e-01, 5.16103625e-01, 2.40301013e-01, 3.42302211e-02,
          2.90484969e-02, 3.39508168e-02, 1.08397804e-01, 8.27150494e-02,
          1.04117962e-02, 4.69221026e-02, 6.95040524e-01, 6.95040524e-01,
          7.10282847e-02, 1.69631746e-02, 2.57737748e-02, 1.69440940e-01,
          5.34966350e-01, 2.85139650e-01, 1.70955420e-01, 3.24912161e-01,
          5.34966350e-01, 4.20339018e-01, 2.76534706e-02, 4.61408217e-03 ]
      - [ 5.59471130e-01, 5.59471130e-01, 2.01043963e-01, 1.86097920e-02,
          3.76077108e-02, 5.59471130e-01, 1.12297870e-01, 0.,
          2.44790036e-02, 5.11597216e-01, 5.11597216e-01, 7.76219442e-02,
          1.86482668e-02, 2.31074914e-01, 5.11597216e-01, 2.77977049e-01,
          7.16177151e-02, 2.59858817e-01, 4.10317093e-01, 4.10317093e-01,
          4.10317093e-01, 2.45536491e-02, 4.10317093e-01, 3.26448321e-01,
          2.50397354e-01, 6.97769374e-02, 3.84345531e-01, 4.65314716e-01,
          4.65314716e-01, 4.29618746e-01, 1.23801902e-01, 1.26600981e-01,
          4.65314716e-01, 3.58315080e-01, 3.44396681e-02, 1.72110461e-02,
          3.49528998e-01, 3.49528998e-01, 3.49528998e-01, 2.05315903e-01,
          3.35341901e-01, 3.49528998e-01, 3.49528998e-01, 3.49528998e-01,
          3.29963297e-01, 3.78817022e-02, 5.39719999e-01, 5.39719999e-01,
          2.93618105e-02, 4.17403765e-02, 1.12255275e-01, 5.39719999e-01,
          3.17332834e-01, 5.81065342e-02, 4.08749640e-01, 4.08749640e-01,
          4.08749640e-01, 1.68471083e-01, 1.63398370e-01, 4.08749640e-01,
          4.08749640e-01, 2.96322972e-01, 1.32839829e-01, 2.45668009e-01,
          3.58380765e-01, 3.58380765e-01, 3.58380765e-01, 3.58380765e-01,
          3.58380765e-01, 3.58380765e-01, 3.58380765e-01, 1.92377716e-01,
          4.15649638e-03, 5.41422427e-01, 5.41422427e-01, 3.70880365e-02,
          7.95528293e-02, 1.58667579e-01, 5.41422427e-01, 2.86661178e-01,
          1.03453677e-02, 4.08749640e-01, 4.08749640e-01, 4.08749640e-01,
          1.68471083e-01, 1.63398370e-01, 4.08749640e-01, 4.08749640e-01,
          2.96322972e-01, 1.32839829e-01, 2.45668009e-01, 3.58380765e-01,
          3.58380765e-01, 3.58380765e-01, 3.58380765e-01, 3.58380765e-01,
          3.58380765e-01, 3.58380765e-01, 1.92377716e-01, 4.15649638e-03,
          5.41422427e-01, 5.41422427e-01, 3.70880365e-02, 7.95528293e-02,
          1.58667579e-01, 5.41422427e-01, 2.86661178e-01, 1.03453677e-02,
          1.89510867e-01, 4.12952811e-01, 4.12952811e-01, 2.24966809e-01,
          4.02795076e-01, 2.63777077e-01, 4.12952811e-01, 3.55439454e-01,
          1.98999569e-01, 1.50714293e-01, 3.73888284e-01, 3.73888284e-01,
          1.82495400e-01, 3.73888284e-01, 3.73888284e-01, 3.73888284e-01,
          3.73888284e-01, 3.18575919e-01, 4.24344204e-02, 5.27248979e-01,
          5.27248979e-01, 3.35519835e-02, 3.35937664e-02, 2.43575856e-01,
          5.27248979e-01, 3.12011838e-01, 4.94942907e-03, 7.43706748e-02,
          3.06247592e-01, 3.97855639e-01, 3.97855639e-01, 3.97855639e-01,
          2.25138977e-01, 2.33610347e-01, 3.97855639e-01, 3.97855639e-01,
          8.83369669e-02, 4.78271455e-01, 4.78271455e-01, 2.02929139e-01,
          4.78271455e-01, 2.10294008e-01, 3.58910710e-01, 2.30265737e-01,
          1.84244573e-01, 2.04503182e-02, 5.00308990e-01, 5.00308990e-01,
          4.67516072e-02, 1.17531002e-01, 3.12814087e-01, 5.00308990e-01,
          3.60105634e-01, 1.13827698e-02, 4.10317093e-01, 4.10317093e-01,
          4.10317093e-01, 2.45536491e-02, 4.10317093e-01, 3.26448321e-01,
          2.50397354e-01, 6.97769374e-02, 3.84345531e-01, 4.36824054e-01,
          2.88869768e-01, 1.23724952e-01, 1.31769657e-01, 3.12197417e-01,
          1.37082055e-01, 4.36824054e-01, 4.36824054e-01, 4.36824054e-01,
          1.99085653e-01, 3.11649144e-02, 2.13660687e-01, 4.88547087e-01,
          3.11182678e-01, 1.21022046e-01, 2.85214812e-01, 4.88547087e-01,
          4.88547087e-01, 3.78817022e-02, 5.39719999e-01, 5.39719999e-01,
          2.93618105e-02, 4.17403765e-02, 1.12255275e-01, 5.39719999e-01,
          3.17332834e-01, 5.81065342e-02, 3.89018953e-01, 4.51742798e-01,
          2.52021343e-01, 3.07896912e-01, 1.02903515e-01, 3.55862886e-01,
          4.51742798e-01, 3.26499492e-01, 1.84021994e-01, 3.91559273e-01,
          2.15092301e-01, 1.06206097e-01, 3.46518666e-01, 2.27761701e-01,
          3.91559273e-01, 3.91559273e-01, 3.91559273e-01, 3.91559273e-01,
          4.15649638e-03, 5.41422427e-01, 5.41422427e-01, 3.70880365e-02,
          7.95528293e-02, 1.58667579e-01, 5.41422427e-01, 2.86661178e-01,
          1.03453677e-02, 1.26666620e-01, 4.75135326e-01, 4.75135326e-01,
          3.66232872e-01, 5.43504469e-02, 2.47643188e-01, 4.75135326e-01,
          3.15180689e-01, 6.48270026e-02, 1.69577554e-01, 2.16183946e-01,
          2.86648721e-01, 3.92914206e-01, 3.92914206e-01, 3.92914206e-01,
          3.92914206e-01, 3.92914206e-01, 2.57890403e-01, 4.15649638e-03,
          5.41422427e-01, 5.41422427e-01, 3.70880365e-02, 7.95528293e-02,
          1.58667579e-01, 5.41422427e-01, 2.86661178e-01, 1.03453677e-02,
          1.26666620e-01, 4.75135326e-01, 4.75135326e-01, 3.66232872e-01,
          5.43504469e-02, 2.47643188e-01, 4.75135326e-01, 3.15180689e-01,
          6.48270026e-02, 1.69577554e-01, 2.16183946e-01, 2.86648721e-01,
          3.92914206e-01, 3.92914206e-01, 3.92914206e-01, 3.92914206e-01,
          3.92914206e-01, 2.57890403e-01, 4.24344204e-02, 5.27248979e-01,
          5.27248979e-01, 3.35519835e-02, 3.35937664e-02, 2.43575856e-01,
          5.27248979e-01, 3.12011838e-01, 4.94942907e-03, 1.18716583e-01,
          4.34585333e-01, 4.34585333e-01, 1.92256644e-01, 1.49043620e-01,
          4.06701624e-01, 4.34585333e-01, 4.15798008e-01, 1.32292449e-01,
          1.45307899e-01, 1.77355126e-01, 1.98388398e-01, 1.83170050e-01,
          4.47499901e-01, 4.47499901e-01, 4.47499901e-01, 4.47499901e-01,
          2.62729615e-01, 2.04503182e-02, 5.00308990e-01, 5.00308990e-01,
          4.67516072e-02, 1.17531002e-01, 3.12814087e-01, 5.00308990e-01,
          3.60105634e-01, 1.13827698e-02, 8.62942636e-02, 3.24146122e-01,
          4.24305409e-01, 2.55423933e-01, 4.24305409e-01, 4.24305409e-01,
          4.24305409e-01, 3.07995439e-01, 5.47822453e-02, 3.98423404e-01,
          3.98423404e-01, 8.14949796e-02, 9.36504602e-02, 3.98423404e-01,
          3.98423404e-01, 3.98423404e-01, 3.98423404e-01, 1.67811945e-01 ]
      - [ 5.02993762e-01, 5.02993762e-01, 5.59342764e-02, 1.06905354e-02,
          3.10494900e-01, 5.02993762e-01, 3.55971396e-01, 1.65109430e-02,
          9.65915173e-02, 5.41673422e-01, 5.41673422e-01, 2.42879037e-02,
          1.71502456e-02, 3.10377032e-01, 5.41673422e-01, 5.30950427e-02,
          2.10769176e-02, 1.17809497e-01, 6.95576429e-01, 9.63046476e-02,
          5.15101068e-02, 3.71231958e-02, 5.81154898e-02, 5.38853742e-02,
          4.65944856e-02, 6.03752770e-02, 6.95576429e-01, 3.99170518e-01,
          4.50511307e-01, 1.51632667e-01, 3.93279314e-01, 2.09933132e-01,
          4.50511307e-01, 4.50511307e-01, 7.11111799e-02, 2.21758951e-02,
          4.12959814e-01, 4.12959814e-01, 2.96984285e-01, 4.12959814e-01,
          4.12959814e-01, 4.12959814e-01, 2.25955769e-01, 3.97529118e-02,
          4.85752970e-02, 3.11673671e-01, 7.54263178e-02, 3.61676425e-01,
          4.79580969e-01, 4.79580969e-01, 4.79580969e-01, 2.14571431e-01,
          8.99255797e-02, 1.32095531e-01, 4.44673121e-01, 4.44673121e-01,
          4.27907109e-01, 3.40861470e-01, 7.44780377e-02, 1.60555258e-01,
          4.44673121e-01, 2.24925160e-01, 1.45424336e-01, 4.02243823e-01,
          1.70225486e-01, 6.97944835e-02, 4.02243823e-01, 4.02243823e-01,
          4.02243823e-01, 3.57779920e-01, 1.58513963e-01, 4.02243823e-01,
          3.62758696e-01, 3.60404789e-01, 2.46366188e-01, 3.62758696e-01,
          3.62758696e-01, 3.62758696e-01, 3.38072777e-01, 1.83098987e-01,
          3.62758696e-01, 4.44673121e-01, 4.44673121e-01, 4.27907109e-01,
          3.40861470e-01, 7.44780377e-02, 1.60555258e-01, 4.44673121e-01,
          2.24925160e-01, 1.45424336e-01, 4.02243823e-01, 1.70225486e-01,
          6.97944835e-02, 4.02243823e-01, 4.02243823e-01, 4.02243823e-01,
          3.57779920e-01, 1.58513963e-01, 4.02243823e-01, 3.62758696e-01,
          3.60404789e-01, 2.46366188e-01, 3.62758696e-01, 3.62758696e-01,
          3.62758696e-01, 3.38072777e-01, 1.83098987e-01, 3.62758696e-01,
          3.92234772e-01, 2.81045616e-01, 3.92234772e-01, 3.92234772e-01,
          1.79105535e-01, 3.92234772e-01, 3.92234772e-01, 2.37912640e-01,
          2.43255660e-01, 4.90732968e-01, 4.90732968e-01, 1.66395735e-02,
          3.33443098e-02, 1.46336824e-01, 4.90732968e-01, 2.61978716e-01,
          1.16284594e-01, 4.09492463e-01, 5.46499074e-01, 5.46499074e-01,
          3.63822281e-02, 4.59901653e-02, 1.13112248e-01, 2.10152343e-01,
          1.19162746e-01, 1.54796362e-01, 5.46499074e-01, 3.40943843e-01,
          2.23060936e-01, 3.46406907e-01, 3.46406907e-01, 3.46406907e-01,
          3.46406907e-01, 3.46406907e-01, 3.46406907e-01, 3.32495987e-01,
          4.46076959e-01, 4.46076959e-01, 3.62783134e-01, 4.46076959e-01,
          4.46076959e-01, 2.58998960e-01, 3.00787874e-02, 1.10796397e-03,
          2.74699577e-03, 3.37498456e-01, 2.59028733e-01, 1.67871770e-02,
          4.58108991e-01, 6.23526990e-01, 4.46824789e-01, 2.46240310e-02,
          2.08459049e-02, 1.14667326e-01, 6.95576429e-01, 9.63046476e-02,
          5.15101068e-02, 3.71231958e-02, 5.81154898e-02, 5.38853742e-02,
          4.65944856e-02, 6.03752770e-02, 6.95576429e-01, 5.85171223e-01,
          2.36500930e-02, 4.93029021e-02, 3.81424390e-02, 1.76983669e-01,
          2.71988362e-01, 8.08163956e-02, 4.00951892e-01, 6.11903131e-01,
          3.68813604e-01, 1.76878214e-01, 1.94461599e-01, 3.47586334e-01,
          3.68813604e-01, 3.55359644e-01, 3.68813604e-01, 3.68813604e-01,
          3.68813604e-01, 3.11673671e-01, 7.54263178e-02, 3.61676425e-01,
          4.79580969e-01, 4.79580969e-01, 4.79580969e-01, 2.14571431e-01,
          8.99255797e-02, 1.32095531e-01, 3.34729552e-01, 5.45589387e-01,
          4.61492613e-02, 1.17046192e-01, 4.16944861e-01, 5.45589387e-01,
          2.31860057e-01, 8.28269869e-02, 1.92042083e-01, 3.87996286e-01,
          3.87996286e-01, 7.69610628e-02, 1.14939682e-01, 3.09104860e-01,
          3.87996286e-01, 3.58801156e-01, 3.87996286e-01, 3.87996286e-01,
          3.62758696e-01, 3.60404789e-01, 2.46366188e-01, 3.62758696e-01,
          3.62758696e-01, 3.62758696e-01, 3.38072777e-01, 1.83098987e-01,
          3.62758696e-01, 3.66087407e-01, 3.69915813e-01, 1.34325713e-01,
          3.69915813e-01, 3.69915813e-01, 3.69915813e-01, 1.52362883e-01,
          3.69915813e-01, 3.69915813e-01, 2.97872275e-01, 3.81966978e-01,
          3.81966978e-01, 3.81966978e-01, 3.81966978e-01, 1.48157224e-01,
          3.81966978e-01, 3.81966978e-01, 1.00562945e-01, 3.62758696e-01,
          3.60404789e-01, 2.46366188e-01, 3.62758696e-01, 3.62758696e-01,
          3.62758696e-01, 3.38072777e-01, 1.83098987e-01, 3.62758696e-01,
          3.66087407e-01, 3.69915813e-01, 1.34325713e-01, 3.69915813e-01,
          3.69915813e-01, 3.69915813e-01, 1.52362883e-01, 3.69915813e-01,
          3.69915813e-01, 2.97872275e-01, 3.81966978e-01, 3.81966978e-01,
          3.81966978e-01, 3.81966978e-01, 1.48157224e-01, 3.81966978e-01,
          3.81966978e-01, 1.00562945e-01, 5.46499074e-01, 5.46499074e-01,
          3.63822281e-02, 4.59901653e-02, 1.13112248e-01, 2.10152343e-01,
          1.19162746e-01, 1.54796362e-01, 5.46499074e-01, 4.90264624e-01,
          4.90264624e-01, 4.17361334e-02, 3.81603464e-02, 1.21876575e-01,
          1.12177700e-01, 5.50463237e-02, 4.90264624e-01, 4.90264624e-01,
          4.15575892e-01, 4.15575892e-01, 2.41308644e-01, 9.48935449e-02,
          5.04232235e-02, 4.15575892e-01, 4.15575892e-01, 2.50109285e-01,
          4.15575892e-01, 3.37498456e-01, 2.59028733e-01, 1.67871770e-02,
          4.58108991e-01, 6.23526990e-01, 4.46824789e-01, 2.46240310e-02,
          2.08459049e-02, 1.14667326e-01, 2.93737650e-01, 2.80853938e-02,
          2.55690310e-02, 6.61881045e-02, 6.48313820e-01, 6.48313820e-01,
          1.24514051e-01, 1.38461981e-02, 2.12379545e-01, 2.72010833e-01,
          3.33151333e-02, 2.77439296e-01, 3.89291883e-01, 3.84145975e-01,
          4.98506397e-01, 4.98506397e-01, 1.08336627e-01, 1.87292770e-01 ]
      - [ 3.03404212e-01, 3.92959625e-01, 3.92959625e-01, 2.20759362e-01,
          1.97030101e-02, 2.87769020e-01, 3.92959625e-01, 3.92959625e-01,
          3.92959625e-01, 3.49050462e-01, 2.23226741e-01, 4.52050209e-01,
          4.52050209e-01, 6.43415600e-02, 1.25197629e-02, 4.60875519e-02,
          4.52050209e-01, 4.52050209e-01, 2.12785199e-01, 5.40904887e-02,
          2.35960007e-01, 4.22261387e-01, 4.22261387e-01, 1.94395594e-02,
          4.22261387e-01, 4.22261387e-01, 4.22261387e-01, 1.46535598e-02,
          2.94361919e-01, 4.87768263e-01, 3.83554786e-01, 1.28098086e-01,
          7.87363872e-02, 4.87768263e-01, 4.87768263e-01, 1.57442614e-01,
          1.63116436e-02, 2.74617299e-02, 4.31855500e-01, 4.31855500e-01,
          4.31855500e-01, 1.99583933e-01, 1.49452761e-01, 4.31855500e-01,
          4.31855500e-01, 2.12161560e-02, 7.96568766e-02, 4.82668251e-01,
          4.82668251e-01, 1.94010243e-01, 6.11187220e-02, 4.82668251e-01,
          4.82668251e-01, 1.23019248e-01, 4.68377344e-04, 2.92861685e-02,
          3.65513802e-01, 3.25343668e-01, 2.21552402e-01, 8.77646506e-02,
          4.76453573e-01, 5.62669575e-01, 3.92022014e-01, 4.54829670e-02,
          7.91796371e-02, 4.04112905e-01, 4.04112905e-01, 4.04112905e-01,
          3.99221241e-01, 1.08216934e-01, 4.04112905e-01, 4.04112905e-01,
          7.86129013e-02, 1.00610211e-01, 3.94919485e-01, 3.94919485e-01,
          3.94919485e-01, 2.38914192e-01, 3.94919485e-01, 3.94919485e-01,
          3.77975374e-01, 4.68377344e-04, 2.92861685e-02, 3.65513802e-01,
          3.25343668e-01, 2.21552402e-01, 8.77646506e-02, 4.76453573e-01,
          5.62669575e-01, 3.92022014e-01, 4.54829670e-02, 7.91796371e-02,
          4.04112905e-01, 4.04112905e-01, 4.04112905e-01, 3.99221241e-01,
          1.08216934e-01, 4.04112905e-01, 4.04112905e-01, 7.86129013e-02,
          1.00610211e-01, 3.94919485e-01, 3.94919485e-01, 3.94919485e-01,
          2.38914192e-01, 3.94919485e-01, 3.94919485e-01, 3.77975374e-01,
          3.94592906e-04, 1.23327868e-02, 1.32473588e-01, 1.87045589e-01,
          2.70282081e-03, 2.01166980e-03, 1.87360838e-01, 6.72859490e-01,
          6.72859490e-01, 2.51493275e-01, 8.91923904e-03, 3.82024825e-01,
          5.11100650e-01, 3.44771259e-02, 4.53792093e-03, 2.72616129e-02,
          5.11100650e-01, 5.11100650e-01, 4.88765329e-01, 6.13499172e-02,
          1.61633655e-01, 4.88765329e-01, 9.44051519e-02, 2.27014255e-02,
          1.53342122e-02, 4.88765329e-01, 4.88765329e-01, 2.16244217e-02,
          1.07388884e-01, 7.56415874e-02, 5.38747251e-01, 5.38747251e-01,
          5.42271999e-04, 3.41004059e-02, 5.38747251e-01, 3.24020296e-01,
          1.03523843e-02, 5.47301304e-03, 1.02712043e-01, 4.30640072e-01,
          2.57594258e-01, 1.49277842e-03, 2.13624015e-02, 6.04571044e-01,
          6.04571044e-01, 1.21164232e-01, 7.98614416e-03, 2.12988511e-01,
          5.46639621e-01, 1.86815038e-01, 5.42714596e-02, 1.19369403e-02,
          5.46639621e-01, 5.46639621e-01, 2.12785199e-01, 5.40904887e-02,
          2.35960007e-01, 4.22261387e-01, 4.22261387e-01, 1.94395594e-02,
          4.22261387e-01, 4.22261387e-01, 4.22261387e-01, 1.98246717e-01,
          4.17005755e-02, 4.33154613e-01, 5.72525799e-01, 2.26351440e-01,
          6.86931284e-03, 1.08154692e-01, 2.98344582e-01, 5.34644127e-01,
          5.15029013e-01, 1.69901624e-02, 3.70779127e-01, 5.15029013e-01,
          1.95914969e-01, 4.05474454e-02, 1.65680964e-02, 1.44999221e-01,
          5.15029013e-01, 2.12161560e-02, 7.96568766e-02, 4.82668251e-01,
          4.82668251e-01, 1.94010243e-01, 6.11187220e-02, 4.82668251e-01,
          4.82668251e-01, 1.23019248e-01, 1.17707998e-02, 2.80333698e-01,
          4.66426760e-01, 4.66426760e-01, 3.26392278e-02, 1.00020869e-02,
          2.12684140e-01, 4.66426760e-01, 4.66426760e-01, 2.22781673e-02,
          1.28927529e-01, 5.05821407e-01, 5.05821407e-01, 4.33492869e-01,
          1.40593484e-01, 9.08254832e-03, 4.55609262e-01, 2.25331008e-01,
          7.86129013e-02, 1.00610211e-01, 3.94919485e-01, 3.94919485e-01,
          3.94919485e-01, 2.38914192e-01, 3.94919485e-01, 3.94919485e-01,
          3.77975374e-01, 2.52679680e-02, 4.99829918e-01, 4.99829918e-01,
          4.18068469e-01, 2.56093107e-02, 3.46268639e-02, 1.44903913e-01,
          4.99829918e-01, 2.17362493e-01, 1.15720667e-02, 1.02320895e-01,
          4.91001457e-01, 4.91001457e-01, 4.40063886e-03, 5.10968128e-03,
          2.62547374e-01, 4.91001457e-01, 4.38484460e-01, 7.86129013e-02,
          1.00610211e-01, 3.94919485e-01, 3.94919485e-01, 3.94919485e-01,
          2.38914192e-01, 3.94919485e-01, 3.94919485e-01, 3.77975374e-01,
          2.52679680e-02, 4.99829918e-01, 4.99829918e-01, 4.18068469e-01,
          2.56093107e-02, 3.46268639e-02, 1.44903913e-01, 4.99829918e-01,
          2.17362493e-01, 1.15720667e-02, 1.02320895e-01, 4.91001457e-01,
          4.91001457e-01, 4.40063886e-03, 5.10968128e-03, 2.62547374e-01,
          4.91001457e-01, 4.38484460e-01, 4.88765329e-01, 6.13499172e-02,
          1.61633655e-01, 4.88765329e-01, 9.44051519e-02, 2.27014255e-02,
          1.53342122e-02, 4.88765329e-01, 4.88765329e-01, 2.65113354e-01,
          3.65154684e-01, 4.44598526e-01, 4.44598526e-01, 2.55867280e-02,
          2.33547911e-02, 8.03317875e-03, 4.44598526e-01, 4.44598526e-01,
          7.13792304e-03, 4.37587723e-02, 4.83448833e-01, 4.83448833e-01,
          1.58480018e-01, 1.08490333e-01, 4.83448833e-01, 4.83448833e-01,
          1.46384209e-01, 1.21164232e-01, 7.98614416e-03, 2.12988511e-01,
          5.46639621e-01, 1.86815038e-01, 5.42714596e-02, 1.19369403e-02,
          5.46639621e-01, 5.46639621e-01, 9.99089479e-02, 3.96375880e-02,
          3.21813643e-01, 5.15676439e-01, 2.58148372e-01, 3.92134339e-02,
          1.17423087e-01, 5.15676439e-01, 5.15676439e-01, 2.45463196e-02,
          4.26744856e-02, 4.78785843e-01, 4.78785843e-01, 1.17662787e-01,
          1.75764695e-01, 4.78785843e-01, 4.78785843e-01, 1.76388681e-01 ]
      - [ 4.14205521e-01, 4.14205521e-01, 1.60070121e-01, 1.90806970e-01,
          3.85422915e-01, 4.14205521e-01, 4.14205521e-01, 2.75114447e-01,
          1.52738452e-01, 3.81074637e-01, 3.81074637e-01, 1.18621565e-01,
          3.44245136e-01, 3.81074637e-01, 3.81074637e-01, 2.48420477e-01,
          2.75345415e-01, 3.81074637e-01, 4.38257128e-01, 1.81805268e-01,
          3.84303480e-02, 3.50772768e-01, 4.38257128e-01, 4.38257128e-01,
          2.03869969e-01, 1.67959794e-01, 4.38257128e-01, 3.58356744e-01,
          3.58356744e-01, 3.58356744e-01, 3.58356744e-01, 2.36847997e-01,
          3.56195718e-01, 2.07195535e-01, 3.58356744e-01, 3.58356744e-01,
          3.50044757e-01, 3.50044757e-01, 1.63416103e-01, 3.50044757e-01,
          3.50044757e-01, 3.50044757e-01, 3.50044757e-01, 3.50044757e-01,
          3.34781319e-01, 3.71784747e-01, 3.71784747e-01, 1.01757184e-01,
          2.61409461e-01, 3.71784747e-01, 3.71784747e-01, 2.97073931e-01,
          3.71784747e-01, 3.71784747e-01, 3.07177454e-01, 4.31628942e-01,
          4.31628942e-01, 4.31628942e-01, 6.27639070e-02, 2.40715258e-02,
          5.53167053e-02, 3.85405719e-01, 4.31628942e-01, 3.87732834e-01,
          2.68489093e-01, 1.28246322e-01, 1.82523355e-01, 3.50135058e-01,
          3.87732834e-01, 3.87732834e-01, 3.87732834e-01, 3.87732834e-01,
          3.61702740e-01, 3.61702740e-01, 2.22237915e-01, 3.61702740e-01,
          3.61702740e-01, 3.61702740e-01, 3.49320531e-01, 1.99996203e-01,
          3.61702740e-01, 3.07177454e-01, 4.31628942e-01, 4.31628942e-01,
          4.31628942e-01, 6.27639070e-02, 2.40715258e-02, 5.53167053e-02,
          3.85405719e-01, 4.31628942e-01, 3.87732834e-01, 2.68489093e-01,
          1.28246322e-01, 1.82523355e-01, 3.50135058e-01, 3.87732834e-01,
          3.87732834e-01, 3.87732834e-01, 3.87732834e-01, 3.61702740e-01,
          3.61702740e-01, 2.22237915e-01, 3.61702740e-01, 3.61702740e-01,
          3.61702740e-01, 3.49320531e-01, 1.99996203e-01, 3.61702740e-01,
          4.55020517e-02, 5.03746152e-01, 5.73874652e-01, 5.73874652e-01,
          1.31917164e-01, 3.24093811e-02, 1.61812112e-01, 1.75653428e-01,
          6.54584467e-02, 3.64746124e-01, 3.68710667e-01, 1.61246270e-01,
          2.01148555e-01, 3.68710667e-01, 3.68710667e-01, 3.68710667e-01,
          3.68710667e-01, 3.42166245e-01, 3.56357783e-01, 3.56357783e-01,
          3.56357783e-01, 1.75618216e-01, 3.56357783e-01, 3.56357783e-01,
          3.56357783e-01, 2.76878566e-01, 3.56357783e-01, 3.69356900e-01,
          2.60922045e-01, 4.51714337e-01, 4.51714337e-01, 3.39392215e-01,
          1.46073148e-01, 7.65489414e-02, 1.90948859e-01, 4.51714337e-01,
          2.99209356e-01, 3.43660444e-01, 2.83119589e-01, 3.43700588e-01,
          3.43700588e-01, 3.43700588e-01, 3.43700588e-01, 3.43700588e-01,
          3.43700588e-01, 3.52678150e-01, 3.52678150e-01, 3.52678150e-01,
          3.52678150e-01, 2.69152939e-01, 3.52678150e-01, 3.52678150e-01,
          2.30997428e-01, 3.52678150e-01, 4.38257128e-01, 1.81805268e-01,
          3.84303480e-02, 3.50772768e-01, 4.38257128e-01, 4.38257128e-01,
          2.03869969e-01, 1.67959794e-01, 4.38257128e-01, 1.97780177e-01,
          1.86911449e-01, 3.79608810e-01, 3.91244024e-01, 3.91244024e-01,
          3.91244024e-01, 1.96513608e-01, 3.56413633e-01, 3.91244024e-01,
          1.31988674e-01, 2.08517909e-01, 4.34065729e-01, 4.34065729e-01,
          4.34065729e-01, 3.16988714e-02, 3.94811593e-02, 4.34065729e-01,
          4.22548831e-01, 3.71784747e-01, 3.71784747e-01, 1.01757184e-01,
          2.61409461e-01, 3.71784747e-01, 3.71784747e-01, 2.97073931e-01,
          3.71784747e-01, 3.71784747e-01, 4.01545674e-01, 4.01545674e-01,
          4.01545674e-01, 4.01545674e-01, 2.44699225e-01, 2.82135397e-01,
          1.73219755e-01, 1.42515883e-01, 4.01545674e-01, 2.58622169e-01,
          4.16588396e-01, 4.16588396e-01, 4.16588396e-01, 3.79691012e-02,
          2.55935770e-02, 2.43160188e-01, 4.16588396e-01, 4.16588396e-01,
          3.61702740e-01, 3.61702740e-01, 2.22237915e-01, 3.61702740e-01,
          3.61702740e-01, 3.61702740e-01, 3.49320531e-01, 1.99996203e-01,
          3.61702740e-01, 4.34466928e-01, 1.94724709e-01, 3.65036190e-01,
          4.34466928e-01, 4.34466928e-01, 2.11905718e-01, 6.04329146e-02,
          1.44529492e-01, 4.34466928e-01, 2.95117348e-01, 2.83417553e-01,
          3.58465821e-01, 3.58465821e-01, 3.58465821e-01, 2.40857854e-01,
          3.58465821e-01, 3.58465821e-01, 3.58465821e-01, 3.61702740e-01,
          3.61702740e-01, 2.22237915e-01, 3.61702740e-01, 3.61702740e-01,
          3.61702740e-01, 3.49320531e-01, 1.99996203e-01, 3.61702740e-01,
          4.34466928e-01, 1.94724709e-01, 3.65036190e-01, 4.34466928e-01,
          4.34466928e-01, 2.11905718e-01, 6.04329146e-02, 1.44529492e-01,
          4.34466928e-01, 2.95117348e-01, 2.83417553e-01, 3.58465821e-01,
          3.58465821e-01, 3.58465821e-01, 2.40857854e-01, 3.58465821e-01,
          3.58465821e-01, 3.58465821e-01, 3.56357783e-01, 3.56357783e-01,
          3.56357783e-01, 1.75618216e-01, 3.56357783e-01, 3.56357783e-01,
          3.56357783e-01, 2.76878566e-01, 3.56357783e-01, 3.49446267e-01,
          3.49446267e-01, 3.49446267e-01, 3.48677844e-01, 3.49446267e-01,
          3.44568193e-01, 1.53391391e-01, 3.49446267e-01, 3.49446267e-01,
          3.54793817e-01, 1.37758851e-01, 3.36873204e-01, 3.54793817e-01,
          3.54793817e-01, 3.54793817e-01, 3.29730719e-01, 3.54793817e-01,
          3.54793817e-01, 3.52678150e-01, 3.52678150e-01, 3.52678150e-01,
          3.52678150e-01, 2.69152939e-01, 3.52678150e-01, 3.52678150e-01,
          2.30997428e-01, 3.52678150e-01, 3.91360343e-01, 3.91360343e-01,
          3.91360343e-01, 1.93392798e-01, 3.91360343e-01, 3.91360343e-01,
          1.59227341e-01, 1.19827844e-01, 3.91360343e-01, 3.96033257e-01,
          3.96033257e-01, 2.33282164e-01, 6.36902153e-02, 3.49639863e-01,
          3.96033257e-01, 3.96033257e-01, 3.62862080e-01, 2.37234786e-01 ]
      - [ 1.62581414e-01, 4.11671400e-02, 4.56913710e-02, 9.33280122e-03,
          3.65773588e-01, 6.35521352e-01, 6.35521352e-01, 1.38006564e-02,
          1.46960199e-01, 3.96798402e-01, 2.47178853e-01, 2.23707840e-01,
          1.34124339e-01, 4.67902988e-01, 4.67902988e-01, 3.89008671e-01,
          2.69711137e-01, 2.16350228e-01, 5.42232037e-01, 5.31264879e-02,
          2.41392404e-02, 4.78022136e-02, 5.42232037e-01, 2.97842324e-01,
          7.76988342e-02, 1.10004537e-01, 5.42232037e-01, 1.41816601e-01,
          4.56859440e-01, 3.49902868e-01, 1.11105047e-01, 8.69945437e-02,
          4.56859440e-01, 4.56859440e-01, 4.47841614e-01, 7.90985152e-02,
          2.29995832e-01, 2.36072600e-01, 4.13479239e-01, 4.13479239e-01,
          2.38800064e-01, 4.13479239e-01, 3.46460015e-01, 4.13479239e-01,
          1.62236542e-01, 3.76579642e-01, 9.51063260e-02, 2.36632600e-01,
          3.76579642e-01, 3.76579642e-01, 2.83415228e-01, 3.76579642e-01,
          3.76579642e-01, 3.76579642e-01, 3.66730057e-02, 4.22135562e-01,
          4.68956143e-01, 8.28253999e-02, 8.06365535e-02, 1.41051859e-01,
          4.68956143e-01, 4.68956143e-01, 3.50364268e-01, 4.54929799e-01,
          6.71585500e-02, 3.28015596e-01, 4.54929799e-01, 1.16768405e-01,
          5.79033494e-02, 1.96263462e-01, 4.54929799e-01, 4.54929799e-01,
          3.68132442e-01, 3.68132442e-01, 3.47300053e-01, 3.68132442e-01,
          1.02286868e-01, 2.57160217e-01, 3.48573267e-01, 3.68132442e-01,
          3.68132442e-01, 3.66730057e-02, 4.22135562e-01, 4.68956143e-01,
          8.28253999e-02, 8.06365535e-02, 1.41051859e-01, 4.68956143e-01,
          4.68956143e-01, 3.50364268e-01, 4.54929799e-01, 6.71585500e-02,
          3.28015596e-01, 4.54929799e-01, 1.16768405e-01, 5.79033494e-02,
          1.96263462e-01, 4.54929799e-01, 4.54929799e-01, 3.68132442e-01,
          3.68132442e-01, 3.47300053e-01, 3.68132442e-01, 1.02286868e-01,
          2.57160217e-01, 3.48573267e-01, 3.68132442e-01, 3.68132442e-01,
          6.34871572e-02, 2.48450175e-01, 4.69888061e-01, 4.69888061e-01,
          1.09982274e-01, 1.29018519e-02, 4.69888061e-01, 4.69888061e-01,
          1.84679970e-01, 4.57671076e-01, 6.20806180e-02, 2.91845679e-01,
          4.57671076e-01, 3.74930769e-01, 1.96602959e-02, 7.51774246e-03,
          3.70129913e-01, 4.57671076e-01, 3.37370932e-01, 1.59129441e-01,
          2.42770523e-01, 4.09873575e-01, 1.26488745e-01, 3.50336522e-01,
          4.09873575e-01, 4.09873575e-01, 3.93830717e-01, 6.92683682e-02,
          2.56652590e-02, 1.11340553e-01, 5.38359880e-01, 1.31505787e-01,
          2.10751444e-02, 2.07791284e-01, 5.59380949e-01, 5.59380949e-01,
          1.99351892e-01, 1.14236251e-02, 1.25784099e-01, 5.87977648e-01,
          5.87977648e-01, 7.07502216e-02, 1.51573634e-03, 2.80660093e-01,
          4.04007584e-01, 4.09698874e-01, 1.03889935e-01, 1.06470346e-01,
          2.76074171e-01, 4.09698874e-01, 3.28965694e-01, 4.09698874e-01,
          3.43409508e-01, 4.09698874e-01, 5.42232037e-01, 5.31264879e-02,
          2.41392404e-02, 4.78022136e-02, 5.42232037e-01, 2.97842324e-01,
          7.76988342e-02, 1.10004537e-01, 5.42232037e-01, 2.21010357e-01,
          2.32120931e-01, 4.36511040e-01, 4.36511040e-01, 4.36511040e-01,
          9.33686569e-02, 6.73656836e-02, 3.42768997e-01, 4.36511040e-01,
          2.85718665e-02, 8.25615078e-02, 4.85272646e-01, 4.86666650e-01,
          3.31775963e-01, 4.07888629e-02, 1.29174188e-01, 4.86666650e-01,
          3.87173295e-01, 3.76579642e-01, 9.51063260e-02, 2.36632600e-01,
          3.76579642e-01, 3.76579642e-01, 2.83415228e-01, 3.76579642e-01,
          3.76579642e-01, 3.76579642e-01, 3.95747833e-02, 5.22992074e-01,
          5.22992074e-01, 1.32929966e-01, 2.17599064e-01, 1.14858381e-01,
          5.22992074e-01, 2.50161171e-01, 1.78482026e-01, 2.84030335e-03,
          3.41672391e-01, 4.96961325e-01, 2.77069122e-01, 1.55723793e-02,
          1.07494824e-01, 4.96961325e-01, 4.96961325e-01, 2.20934421e-01,
          3.68132442e-01, 3.68132442e-01, 3.47300053e-01, 3.68132442e-01,
          1.02286868e-01, 2.57160217e-01, 3.48573267e-01, 3.68132442e-01,
          3.68132442e-01, 4.07546371e-01, 4.07546371e-01, 4.07546371e-01,
          4.07546371e-01, 4.85486500e-02, 1.23954453e-01, 1.83026433e-01,
          4.07546371e-01, 3.37991387e-01, 1.48109961e-02, 2.67484397e-01,
          4.41314787e-01, 2.48488426e-01, 1.13988549e-01, 4.37023491e-01,
          4.92027044e-01, 4.68819678e-01, 3.07885054e-02, 3.68132442e-01,
          3.68132442e-01, 3.47300053e-01, 3.68132442e-01, 1.02286868e-01,
          2.57160217e-01, 3.48573267e-01, 3.68132442e-01, 3.68132442e-01,
          4.07546371e-01, 4.07546371e-01, 4.07546371e-01, 4.07546371e-01,
          4.85486500e-02, 1.23954453e-01, 1.83026433e-01, 4.07546371e-01,
          3.37991387e-01, 1.48109961e-02, 2.67484397e-01, 4.41314787e-01,
          2.48488426e-01, 1.13988549e-01, 4.37023491e-01, 4.92027044e-01,
          4.68819678e-01, 3.07885054e-02, 3.37370932e-01, 1.59129441e-01,
          2.42770523e-01, 4.09873575e-01, 1.26488745e-01, 3.50336522e-01,
          4.09873575e-01, 4.09873575e-01, 3.93830717e-01, 1.60752118e-01,
          4.35729355e-01, 4.35729355e-01, 4.35729355e-01, 1.47520036e-01,
          2.43029773e-01, 4.35729355e-01, 3.45316499e-01, 1.01472899e-01,
          1.32155612e-01, 4.09103841e-01, 3.14828217e-01, 4.09103841e-01,
          4.09103841e-01, 4.09103841e-01, 4.09103841e-01, 2.04888374e-01,
          2.28558891e-02, 4.09698874e-01, 1.03889935e-01, 1.06470346e-01,
          2.76074171e-01, 4.09698874e-01, 3.28965694e-01, 4.09698874e-01,
          3.43409508e-01, 4.09698874e-01, 3.43392909e-01, 3.43392909e-01,
          3.43392909e-01, 2.78562248e-01, 3.43392909e-01, 3.36260349e-01,
          3.43392909e-01, 3.13670069e-01, 3.43392909e-01, 6.59145236e-01,
          6.59145236e-01, 1.74168780e-01, 3.54839191e-02, 1.45219937e-01,
          1.35103598e-01, 1.95056960e-01, 1.20664351e-01, 3.05268578e-02 ]
      - [ 3.87387067e-01, 3.87387067e-01, 3.87387067e-01, 2.75076151e-01,
          1.87674850e-01, 3.87387067e-01, 2.78847516e-01, 2.39042848e-01,
          3.87387067e-01, 4.45720643e-01, 4.45720643e-01, 8.01518410e-02,
          1.38092652e-01, 3.79580736e-01, 4.45720643e-01, 1.76853806e-01,
          5.24619408e-03, 4.45720643e-01, 5.49666643e-01, 8.96768421e-02,
          3.40768620e-02, 2.08819717e-01, 5.49666643e-01, 1.64054871e-01,
          2.99035367e-02, 8.65651891e-02, 5.49666643e-01, 3.87308091e-01,
          3.87308091e-01, 3.87308091e-01, 1.61181688e-01, 3.87308091e-01,
          3.87308091e-01, 3.87308091e-01, 2.62267560e-01, 3.63536403e-02,
          5.02930224e-01, 2.58234024e-01, 4.54461873e-02, 2.23744422e-01,
          6.64512336e-01, 3.60460401e-01, 4.75679860e-02, 2.38824505e-02,
          2.17426240e-01, 3.24288577e-01, 3.70008707e-01, 1.42418161e-01,
          4.78734493e-01, 4.78734493e-01, 4.78734493e-01, 1.24429576e-01,
          1.08831301e-02, 1.72350392e-01, 3.61106098e-01, 3.61106098e-01,
          3.61106098e-01, 1.81567237e-01, 2.25038603e-01, 3.61106098e-01,
          3.61106098e-01, 3.61106098e-01, 3.61106098e-01, 4.91006106e-01,
          1.05883054e-01, 2.21103653e-02, 7.29157925e-02, 4.91006106e-01,
          4.78213191e-01, 1.10473096e-01, 1.18008472e-01, 4.91006106e-01,
          3.55443388e-01, 3.55443388e-01, 2.09842175e-01, 2.60834962e-01,
          3.55443388e-01, 3.55443388e-01, 3.55443388e-01, 3.55443388e-01,
          3.55443388e-01, 3.61106098e-01, 3.61106098e-01, 3.61106098e-01,
          1.81567237e-01, 2.25038603e-01, 3.61106098e-01, 3.61106098e-01,
          3.61106098e-01, 3.61106098e-01, 4.91006106e-01, 1.05883054e-01,
          2.21103653e-02, 7.29157925e-02, 4.91006106e-01, 4.78213191e-01,
          1.10473096e-01, 1.18008472e-01, 4.91006106e-01, 3.55443388e-01,
          3.55443388e-01, 2.09842175e-01, 2.60834962e-01, 3.55443388e-01,
          3.55443388e-01, 3.55443388e-01, 3.55443388e-01, 3.55443388e-01,
          1.71355382e-01, 3.16673547e-01, 3.87979209e-01, 3.87979209e-01,
          2.10985810e-01, 2.65688628e-01, 3.87581736e-01, 3.86743575e-01,
          3.87979209e-01, 4.68501419e-01, 4.68501419e-01, 2.16253281e-01,
          1.69118509e-01, 1.29061520e-01, 4.68501419e-01, 4.68501419e-01,
          4.27400246e-02, 1.53283924e-01, 2.53443837e-01, 3.84869248e-01,
          2.07592085e-01, 8.98724142e-03, 3.84869248e-01, 3.84869248e-01,
          3.84869248e-01, 3.84869248e-01, 3.84869248e-01, 1.34496525e-01,
          3.60464424e-01, 4.13502187e-01, 4.13502187e-01, 2.50675112e-01,
          6.36060238e-02, 3.11488867e-01, 4.13502187e-01, 4.13502187e-01,
          3.64331692e-01, 3.64331692e-01, 3.64331692e-01, 3.64331692e-01,
          3.64331692e-01, 2.31785014e-01, 1.16071388e-01, 3.64331692e-01,
          3.64331692e-01, 3.14007282e-01, 2.70820469e-01, 1.26129597e-01,
          1.88260287e-01, 4.50116724e-01, 1.67092368e-01, 3.69423836e-01,
          4.50116724e-01, 4.50116724e-01, 5.49666643e-01, 8.96768421e-02,
          3.40768620e-02, 2.08819717e-01, 5.49666643e-01, 1.64054871e-01,
          2.99035367e-02, 8.65651891e-02, 5.49666643e-01, 3.62424344e-01,
          1.08402550e-01, 2.55280703e-01, 3.62424344e-01, 3.62424344e-01,
          3.62424344e-01, 3.62424344e-01, 3.62424344e-01, 3.62424344e-01,
          3.88685703e-01, 1.52992830e-01, 3.88685703e-01, 3.88685703e-01,
          2.21041664e-01, 1.31875783e-01, 3.88685703e-01, 3.88685703e-01,
          3.88685703e-01, 3.24288577e-01, 3.70008707e-01, 1.42418161e-01,
          4.78734493e-01, 4.78734493e-01, 4.78734493e-01, 1.24429576e-01,
          1.08831301e-02, 1.72350392e-01, 4.33616728e-01, 4.33616728e-01,
          2.75735706e-01, 3.40292424e-01, 1.65858150e-01, 4.33616728e-01,
          4.19391632e-01, 9.59005579e-02, 1.64845034e-01, 3.75128359e-01,
          3.75128359e-01, 3.75128359e-01, 3.75128359e-01, 2.90654525e-02,
          1.01776712e-01, 3.75128359e-01, 3.75128359e-01, 3.75128359e-01,
          3.55443388e-01, 3.55443388e-01, 2.09842175e-01, 2.60834962e-01,
          3.55443388e-01, 3.55443388e-01, 3.55443388e-01, 3.55443388e-01,
          3.55443388e-01, 6.66366592e-02, 4.66536760e-01, 4.66536760e-01,
          4.23618287e-01, 1.51468560e-01, 4.66536760e-01, 3.51793677e-01,
          1.08044878e-01, 1.01172561e-02, 4.19380963e-02, 4.06635791e-01,
          4.67092961e-01, 9.55408067e-02, 4.34696600e-02, 2.87995189e-01,
          4.67092961e-01, 4.67092961e-01, 2.82377034e-01, 3.55443388e-01,
          3.55443388e-01, 2.09842175e-01, 2.60834962e-01, 3.55443388e-01,
          3.55443388e-01, 3.55443388e-01, 3.55443388e-01, 3.55443388e-01,
          6.66366592e-02, 4.66536760e-01, 4.66536760e-01, 4.23618287e-01,
          1.51468560e-01, 4.66536760e-01, 3.51793677e-01, 1.08044878e-01,
          1.01172561e-02, 4.19380963e-02, 4.06635791e-01, 4.67092961e-01,
          9.55408067e-02, 4.34696600e-02, 2.87995189e-01, 4.67092961e-01,
          4.67092961e-01, 2.82377034e-01, 2.53443837e-01, 3.84869248e-01,
          2.07592085e-01, 8.98724142e-03, 3.84869248e-01, 3.84869248e-01,
          3.84869248e-01, 3.84869248e-01, 3.84869248e-01, 2.84033626e-01,
          4.20149148e-01, 4.20149148e-01, 3.61281097e-01, 4.20149148e-01,
          2.23166391e-01, 2.63155252e-01, 3.47247750e-01, 1.24068730e-01,
          1.97506934e-01, 4.41079199e-01, 4.41079199e-01, 1.34123266e-01,
          2.04255775e-01, 4.41079199e-01, 4.41079199e-01, 3.43991637e-01,
          1.84899997e-02, 3.14007282e-01, 2.70820469e-01, 1.26129597e-01,
          1.88260287e-01, 4.50116724e-01, 1.67092368e-01, 3.69423836e-01,
          4.50116724e-01, 4.50116724e-01, 3.68347198e-01, 3.68347198e-01,
          3.68347198e-01, 8.73783901e-02, 3.68347198e-01, 3.68347198e-01,
          1.97300285e-01, 3.68347198e-01, 3.68347198e-01, 4.43114758e-01,
          4.43114758e-01, 2.24706173e-01, 6.29653707e-02, 3.83304179e-01,
          4.43114758e-01, 4.43114758e-01, 6.22154735e-02, 7.01471940e-02 ]
      - [ 8.85153189e-02, 1.08160980e-01, 9.97650549e-02, 1.60236899e-02,
          1.96055681e-01, 6.89074695e-01, 6.64106011e-01, 8.22277665e-02,
          4.81419377e-02, 4.18983698e-01, 4.18983698e-01, 8.02036300e-02,
          2.10937276e-01, 4.18983698e-01, 4.18983698e-01, 4.18983698e-01,
          1.04268670e-01, 2.37231165e-01, 4.23592180e-01, 3.33214402e-01,
          2.38258485e-02, 2.58902311e-01, 4.23592180e-01, 4.23592180e-01,
          2.93615401e-01, 1.14922926e-01, 4.23592180e-01, 2.74653971e-01,
          4.20895815e-01, 3.90852481e-01, 6.44053742e-02, 2.24405199e-01,
          4.20895815e-01, 4.20895815e-01, 4.20895815e-01, 6.69041574e-02,
          4.15773928e-01, 4.15773928e-01, 2.91039169e-01, 6.37916923e-02,
          1.47429451e-01, 4.15773928e-01, 4.15773928e-01, 4.13637936e-01,
          1.50896639e-01, 3.87091011e-01, 3.87091011e-01, 1.80591464e-01,
          2.12025464e-01, 3.87091011e-01, 3.87091011e-01, 3.87091011e-01,
          3.87091011e-01, 1.39742285e-01, 1.43044308e-01, 3.91141027e-01,
          3.91141027e-01, 1.64990515e-01, 3.91141027e-01, 3.91141027e-01,
          3.91141027e-01, 3.91141027e-01, 1.74530804e-01, 2.99369156e-01,
          2.97741055e-01, 2.48048529e-01, 3.98739845e-01, 3.98739845e-01,
          3.87258112e-01, 3.98739845e-01, 2.68605292e-01, 2.38995433e-01,
          3.75105023e-01, 3.75105023e-01, 2.80230284e-01, 2.08566591e-01,
          2.38630697e-01, 3.75105023e-01, 3.75105023e-01, 3.37283313e-01,
          3.75105023e-01, 1.43044308e-01, 3.91141027e-01, 3.91141027e-01,
          1.64990515e-01, 3.91141027e-01, 3.91141027e-01, 3.91141027e-01,
          3.91141027e-01, 1.74530804e-01, 2.99369156e-01, 2.97741055e-01,
          2.48048529e-01, 3.98739845e-01, 3.98739845e-01, 3.87258112e-01,
          3.98739845e-01, 2.68605292e-01, 2.38995433e-01, 3.75105023e-01,
          3.75105023e-01, 2.80230284e-01, 2.08566591e-01, 2.38630697e-01,
          3.75105023e-01, 3.75105023e-01, 3.37283313e-01, 3.75105023e-01,
          3.78417701e-01, 2.28278041e-01, 3.19866866e-01, 2.58661211e-01,
          2.70967364e-01, 3.58699083e-01, 3.78417701e-01, 3.78417701e-01,
          3.78417701e-01, 3.69998634e-01, 3.69998634e-01, 2.26231918e-01,
          3.10579270e-01, 3.69998634e-01, 3.69998634e-01, 1.65134177e-01,
          3.69998634e-01, 3.69998634e-01, 4.21316355e-01, 3.88516456e-01,
          4.65241969e-02, 9.23400298e-02, 1.56327873e-01, 4.21316355e-01,
          3.15732181e-01, 4.21316355e-01, 4.21316355e-01, 9.80744138e-02,
          3.24248858e-02, 7.60525689e-02, 1.34394169e-01, 1.03556141e-01,
          8.94037336e-02, 4.41308260e-01, 6.10703170e-01, 6.10703170e-01,
          3.54600161e-01, 3.54600161e-01, 3.54600161e-01, 3.54600161e-01,
          3.54600161e-01, 3.39698255e-01, 2.95543522e-02, 3.54600161e-01,
          3.54600161e-01, 4.25515801e-01, 2.30620548e-01, 1.36302650e-01,
          4.25515801e-01, 4.25515801e-01, 4.25515801e-01, 5.37774675e-02,
          1.25597194e-01, 4.25515801e-01, 4.23592180e-01, 3.33214402e-01,
          2.38258485e-02, 2.58902311e-01, 4.23592180e-01, 4.23592180e-01,
          2.93615401e-01, 1.14922926e-01, 4.23592180e-01, 2.34704003e-01,
          1.35609552e-01, 3.04424077e-01, 4.06633437e-01, 4.06633437e-01,
          4.06633437e-01, 5.50836958e-02, 4.06633437e-01, 4.06633437e-01,
          5.04086502e-02, 5.42526878e-02, 6.15329862e-01, 6.81668043e-01,
          3.15650016e-01, 1.38003156e-01, 2.86971834e-02, 1.26187444e-01,
          9.47731584e-02, 3.87091011e-01, 3.87091011e-01, 1.80591464e-01,
          2.12025464e-01, 3.87091011e-01, 3.87091011e-01, 3.87091011e-01,
          3.87091011e-01, 1.39742285e-01, 3.58877927e-01, 3.58877927e-01,
          3.58877927e-01, 3.58877927e-01, 3.58877927e-01, 3.58877927e-01,
          2.45036915e-01, 3.58877927e-01, 1.86595783e-01, 1.10194527e-01,
          3.93007815e-01, 3.93558890e-01, 3.93558890e-01, 3.30291361e-01,
          3.54754835e-01, 2.25786343e-01, 3.93558890e-01, 2.80858874e-01,
          3.75105023e-01, 3.75105023e-01, 2.80230284e-01, 2.08566591e-01,
          2.38630697e-01, 3.75105023e-01, 3.75105023e-01, 3.37283313e-01,
          3.75105023e-01, 3.51856589e-01, 3.58987510e-01, 3.58385772e-01,
          2.59605169e-01, 3.58987510e-01, 3.58987510e-01, 3.58987510e-01,
          3.58987510e-01, 1.80041596e-01, 2.83611175e-02, 4.83283520e-01,
          4.83283520e-01, 1.73435256e-01, 1.06637366e-01, 1.78170294e-01,
          4.83283520e-01, 4.46284026e-01, 1.45993978e-01, 3.75105023e-01,
          3.75105023e-01, 2.80230284e-01, 2.08566591e-01, 2.38630697e-01,
          3.75105023e-01, 3.75105023e-01, 3.37283313e-01, 3.75105023e-01,
          3.51856589e-01, 3.58987510e-01, 3.58385772e-01, 2.59605169e-01,
          3.58987510e-01, 3.58987510e-01, 3.58987510e-01, 3.58987510e-01,
          1.80041596e-01, 2.83611175e-02, 4.83283520e-01, 4.83283520e-01,
          1.73435256e-01, 1.06637366e-01, 1.78170294e-01, 4.83283520e-01,
          4.46284026e-01, 1.45993978e-01, 4.21316355e-01, 3.88516456e-01,
          4.65241969e-02, 9.23400298e-02, 1.56327873e-01, 4.21316355e-01,
          3.15732181e-01, 4.21316355e-01, 4.21316355e-01, 5.20272911e-01,
          2.13906333e-01, 1.26107827e-01, 1.46707952e-01, 5.20272911e-01,
          2.41865709e-01, 1.78956553e-01, 9.51081738e-02, 5.20272911e-01,
          3.98587793e-01, 3.98587793e-01, 3.98587793e-01, 3.87886167e-02,
          1.08985461e-01, 3.98587793e-01, 3.98587793e-01, 1.71470970e-01,
          3.98587793e-01, 4.25515801e-01, 2.30620548e-01, 1.36302650e-01,
          4.25515801e-01, 4.25515801e-01, 4.25515801e-01, 5.37774675e-02,
          1.25597194e-01, 4.25515801e-01, 4.10045534e-01, 3.95661056e-01,
          3.93631049e-02, 2.14917719e-01, 4.10045534e-01, 4.10045534e-01,
          3.26090068e-01, 1.12840600e-01, 4.10045534e-01, 5.35069644e-01,
          5.35069644e-01, 1.50770649e-01, 5.86324483e-02, 1.13186643e-01,
          5.26002049e-01, 1.90632895e-01, 2.85594743e-02, 2.63138950e-01 ]
      - [ 5.12023389e-01, 5.12023389e-01, 3.20746750e-01, 2.36836046e-01,
          3.38187441e-03, 0., 1.60509534e-02, 3.70034695e-01,
          4.17595387e-01, 4.15902585e-01, 4.15902585e-01, 3.80582362e-01,
          4.15902585e-01, 1.09098822e-01, 3.30083743e-02, 2.25767463e-01,
          4.15902585e-01, 3.08447003e-01, 3.65891516e-01, 3.12381446e-01,
          1.30978867e-01, 3.41317624e-01, 3.65891516e-01, 3.64992768e-01,
          3.65891516e-01, 3.65891516e-01, 3.10455978e-01, 3.66324633e-01,
          4.90310520e-01, 4.90310520e-01, 8.19792747e-02, 2.83383690e-02,
          1.66713335e-02, 2.81430949e-02, 4.90310520e-01, 3.62080395e-01,
          1.63275041e-02, 1.89873595e-02, 3.89233500e-01, 5.05235791e-01,
          1.08731233e-01, 1.03921913e-01, 2.33264640e-01, 5.05235791e-01,
          5.05235791e-01, 2.22734153e-01, 3.77735317e-01, 3.77735317e-01,
          3.77735317e-01, 2.40329921e-01, 3.35683584e-01, 3.77735317e-01,
          3.77735317e-01, 2.50507176e-01, 9.75514576e-02, 6.28662825e-01,
          6.28662825e-01, 4.27924931e-01, 4.22476828e-02, 1.27859768e-02,
          1.00946110e-02, 5.34950495e-02, 7.57715777e-02, 1.18026964e-01,
          1.23423850e-02, 5.34866005e-02, 9.92570072e-02, 9.63012949e-02,
          2.09004894e-01, 5.52187622e-01, 5.52187622e-01, 5.52187622e-01,
          3.43467802e-01, 3.43467802e-01, 3.43467802e-01, 3.43467802e-01,
          2.29798034e-01, 3.43467802e-01, 3.43467802e-01, 3.43467802e-01,
          3.43467802e-01, 9.75514576e-02, 6.28662825e-01, 6.28662825e-01,
          4.27924931e-01, 4.22476828e-02, 1.27859768e-02, 1.00946110e-02,
          5.34950495e-02, 7.57715777e-02, 1.18026964e-01, 1.23423850e-02,
          5.34866005e-02, 9.92570072e-02, 9.63012949e-02, 2.09004894e-01,
          5.52187622e-01, 5.52187622e-01, 5.52187622e-01, 3.43467802e-01,
          3.43467802e-01, 3.43467802e-01, 3.43467802e-01, 2.29798034e-01,
          3.43467802e-01, 3.43467802e-01, 3.43467802e-01, 3.43467802e-01,
          5.25500886e-02, 3.90333056e-01, 6.43448234e-01, 6.43448234e-01,
          4.62971702e-02, 1.64654627e-02, 8.12487602e-02, 2.57019475e-02,
          2.69582197e-02, 1.26062840e-01, 1.26398131e-01, 1.42339066e-01,
          1.80487141e-01, 1.74269989e-01, 5.13836801e-01, 5.13836801e-01,
          5.13836801e-01, 2.96157420e-01, 3.49217236e-01, 3.49217236e-01,
          3.49217236e-01, 3.49217236e-01, 1.44531846e-01, 3.49217236e-01,
          3.49217236e-01, 3.49217236e-01, 3.49217236e-01, 7.74552822e-02,
          2.49411762e-01, 6.49930656e-01, 6.49930656e-01, 2.27853715e-01,
          1.61181837e-02, 6.71457052e-02, 1.36793926e-01, 7.13299066e-02,
          1.79683238e-01, 5.30168340e-02, 2.35326678e-01, 4.19947386e-01,
          4.19947386e-01, 1.69779763e-01, 4.13619488e-01, 4.19947386e-01,
          4.19947386e-01, 3.98938477e-01, 3.98938477e-01, 3.50863695e-01,
          2.13311434e-01, 3.98938477e-01, 3.42564434e-01, 7.28823841e-02,
          2.61032075e-01, 3.98938477e-01, 3.65891516e-01, 3.12381446e-01,
          1.30978867e-01, 3.41317624e-01, 3.65891516e-01, 3.64992768e-01,
          3.65891516e-01, 3.65891516e-01, 3.10455978e-01, 3.98601770e-01,
          3.98601770e-01, 3.98601770e-01, 1.61122918e-01, 3.98601770e-01,
          1.24713294e-01, 3.46950367e-02, 3.98601770e-01, 3.98601770e-01,
          3.64180893e-01, 2.22535804e-01, 3.98017108e-01, 4.43892151e-01,
          2.09280066e-02, 3.66873736e-03, 1.22533225e-01, 4.70228493e-01,
          4.70228493e-01, 2.22734153e-01, 3.77735317e-01, 3.77735317e-01,
          3.77735317e-01, 2.40329921e-01, 3.35683584e-01, 3.77735317e-01,
          3.77735317e-01, 2.50507176e-01, 4.29607689e-01, 4.29607689e-01,
          4.29607689e-01, 4.29607689e-01, 3.47723991e-01, 7.39968196e-02,
          1.31483883e-01, 1.57391638e-01, 2.98345119e-01, 8.64152089e-02,
          7.89063051e-02, 8.50673765e-02, 7.29262754e-02, 1.96663179e-02,
          2.23702993e-02, 6.16494358e-01, 6.16494358e-01, 4.54509050e-01,
          3.43467802e-01, 3.43467802e-01, 3.43467802e-01, 3.43467802e-01,
          2.29798034e-01, 3.43467802e-01, 3.43467802e-01, 3.43467802e-01,
          3.43467802e-01, 4.09949630e-01, 4.38035071e-01, 4.38035071e-01,
          4.38035071e-01, 1.81190878e-01, 2.46174067e-01, 1.70816079e-01,
          8.15653577e-02, 3.50255191e-01, 6.46053776e-02, 2.89488491e-02,
          3.71140763e-02, 3.48143131e-02, 2.57049799e-02, 5.20519018e-01,
          5.96403241e-01, 5.96403241e-01, 5.87283000e-02, 3.43467802e-01,
          3.43467802e-01, 3.43467802e-01, 3.43467802e-01, 2.29798034e-01,
          3.43467802e-01, 3.43467802e-01, 3.43467802e-01, 3.43467802e-01,
          4.09949630e-01, 4.38035071e-01, 4.38035071e-01, 4.38035071e-01,
          1.81190878e-01, 2.46174067e-01, 1.70816079e-01, 8.15653577e-02,
          3.50255191e-01, 6.46053776e-02, 2.89488491e-02, 3.71140763e-02,
          3.48143131e-02, 2.57049799e-02, 5.20519018e-01, 5.96403241e-01,
          5.96403241e-01, 5.87283000e-02, 3.49217236e-01, 3.49217236e-01,
          3.49217236e-01, 3.49217236e-01, 1.44531846e-01, 3.49217236e-01,
          3.49217236e-01, 3.49217236e-01, 3.49217236e-01, 2.13703126e-01,
          3.50696325e-01, 4.48439270e-01, 4.48439270e-01, 8.64782631e-02,
          4.98766154e-02, 1.11831911e-01, 4.48439270e-01, 4.48439270e-01,
          1.14488900e-01, 2.41540089e-01, 1.81131974e-01, 4.73517984e-01,
          1.99555919e-01, 4.73517984e-01, 4.73517984e-01, 3.87454569e-01,
          1.68555111e-01, 3.98938477e-01, 3.98938477e-01, 3.50863695e-01,
          2.13311434e-01, 3.98938477e-01, 3.42564434e-01, 7.28823841e-02,
          2.61032075e-01, 3.98938477e-01, 1.91132158e-01, 2.72697717e-01,
          2.76808590e-01, 1.91680253e-01, 3.92890662e-01, 3.92890662e-01,
          3.92890662e-01, 3.92890662e-01, 3.92890662e-01, 3.61521482e-01,
          3.61521482e-01, 3.54426533e-01, 3.61521482e-01, 3.61521482e-01,
          3.61521482e-01, 3.61521482e-01, 2.48649374e-01, 1.57342196e-01 ]
      - [ 3.78423542e-01, 3.87285441e-01, 3.87285441e-01, 2.67029762e-01,
          3.87285441e-01, 3.87285441e-01, 3.53146702e-01, 9.39110667e-02,
          2.19384760e-01, 3.67960334e-01, 3.67960334e-01, 3.10137212e-01,
          3.40340912e-01, 3.67960334e-01, 3.47019970e-01, 3.67960334e-01,
          2.42054671e-01, 2.52416730e-01, 2.99059838e-01, 7.11943805e-02,
          5.67691475e-02, 1.43084079e-01, 5.43250144e-01, 5.43250144e-01,
          1.42657861e-01, 1.43883809e-01, 4.95053947e-01, 3.53911161e-01,
          4.12510127e-01, 4.12510127e-01, 2.41362542e-01, 2.75219619e-01,
          7.56449923e-02, 2.24151179e-01, 4.12510127e-01, 4.12510127e-01,
          3.72903556e-01, 1.77123338e-01, 2.27846980e-01, 3.50515962e-01,
          3.72903556e-01, 3.07962537e-01, 3.72903556e-01, 3.72903556e-01,
          3.72903556e-01, 3.78236383e-01, 3.78236383e-01, 3.04062981e-02,
          1.64766967e-01, 3.78236383e-01, 3.78236383e-01, 3.49672973e-01,
          3.61335546e-01, 3.78236383e-01, 9.67218429e-02, 5.35544395e-01,
          5.35544395e-01, 5.35544395e-01, 2.94486284e-01, 1.32219931e-02,
          7.51509368e-02, 9.50158313e-02, 1.52645186e-01, 3.62541348e-01,
          2.62979269e-01, 2.84709603e-01, 1.22118607e-01, 3.08915734e-01,
          3.88626307e-01, 3.88626307e-01, 3.88626307e-01, 3.88626307e-01,
          3.32778692e-01, 3.32778692e-01, 3.32778692e-01, 3.32778692e-01,
          3.32778692e-01, 3.32778692e-01, 3.32778692e-01, 3.32778692e-01,
          3.32778692e-01, 9.67218429e-02, 5.35544395e-01, 5.35544395e-01,
          5.35544395e-01, 2.94486284e-01, 1.32219931e-02, 7.51509368e-02,
          9.50158313e-02, 1.52645186e-01, 3.62541348e-01, 2.62979269e-01,
          2.84709603e-01, 1.22118607e-01, 3.08915734e-01, 3.88626307e-01,
          3.88626307e-01, 3.88626307e-01, 3.88626307e-01, 3.32778692e-01,
          3.32778692e-01, 3.32778692e-01, 3.32778692e-01, 3.32778692e-01,
          3.32778692e-01, 3.32778692e-01, 3.32778692e-01, 3.32778692e-01,
          2.64063329e-01, 4.21216786e-01, 4.21216786e-01, 4.21216786e-01,
          7.08979964e-02, 7.92004447e-03, 1.83998898e-01, 4.21216786e-01,
          4.21216786e-01, 2.80869901e-01, 2.60754108e-01, 2.55434275e-01,
          3.61538559e-01, 3.61538559e-01, 3.61538559e-01, 3.61538559e-01,
          3.61538559e-01, 3.61538559e-01, 3.32778692e-01, 3.32778692e-01,
          3.32778692e-01, 3.32778692e-01, 3.32778692e-01, 3.32778692e-01,
          3.32778692e-01, 3.32778692e-01, 3.32778692e-01, 1.69557601e-01,
          3.19082111e-01, 1.99508801e-01, 3.97651255e-01, 3.97651255e-01,
          1.87157765e-01, 3.97651255e-01, 3.97651255e-01, 3.97651255e-01,
          3.91092569e-01, 1.82278633e-01, 2.64701694e-01, 3.91092569e-01,
          3.50548446e-01, 7.17572495e-02, 3.91092569e-01, 3.91092569e-01,
          3.91092569e-01, 3.32778692e-01, 3.32778692e-01, 3.32778692e-01,
          3.32778692e-01, 3.32778692e-01, 3.32778692e-01, 3.32778692e-01,
          3.32778692e-01, 3.32778692e-01, 2.99059838e-01, 7.11943805e-02,
          5.67691475e-02, 1.43084079e-01, 5.43250144e-01, 5.43250144e-01,
          1.42657861e-01, 1.43883809e-01, 4.95053947e-01, 8.48641023e-02,
          2.00952768e-01, 4.47534472e-01, 4.47534472e-01, 4.47534472e-01,
          4.47534472e-01, 2.94830985e-02, 1.94053411e-01, 3.29046339e-01,
          2.23975897e-01, 5.18276058e-02, 5.65760374e-01, 5.65760374e-01,
          3.12316149e-01, 2.20075832e-03, 5.81481867e-02, 2.20658243e-01,
          3.89502257e-01, 3.78236383e-01, 3.78236383e-01, 3.04062981e-02,
          1.64766967e-01, 3.78236383e-01, 3.78236383e-01, 3.49672973e-01,
          3.61335546e-01, 3.78236383e-01, 3.97347897e-01, 3.97347897e-01,
          3.97347897e-01, 3.97347897e-01, 1.51805237e-01, 1.60229772e-01,
          2.96724786e-04, 3.97347897e-01, 3.97347897e-01, 1.55134767e-01,
          3.34204465e-01, 4.76247221e-01, 4.76247221e-01, 4.07520011e-02,
          8.46523675e-04, 1.75817266e-01, 4.76247221e-01, 3.82722467e-01,
          3.32778692e-01, 3.32778692e-01, 3.32778692e-01, 3.32778692e-01,
          3.32778692e-01, 3.32778692e-01, 3.32778692e-01, 3.32778692e-01,
          3.32778692e-01, 3.96086842e-01, 3.67118686e-01, 3.27410907e-01,
          3.96086842e-01, 3.96086842e-01, 2.31575802e-01, 7.69627392e-02,
          2.58803636e-01, 3.96086842e-01, 2.46399418e-01, 2.25983813e-01,
          3.93492013e-01, 3.93492013e-01, 3.93492013e-01, 9.76638794e-02,
          3.93492013e-01, 3.93492013e-01, 3.17127168e-01, 3.32778692e-01,
          3.32778692e-01, 3.32778692e-01, 3.32778692e-01, 3.32778692e-01,
          3.32778692e-01, 3.32778692e-01, 3.32778692e-01, 3.32778692e-01,
          3.96086842e-01, 3.67118686e-01, 3.27410907e-01, 3.96086842e-01,
          3.96086842e-01, 2.31575802e-01, 7.69627392e-02, 2.58803636e-01,
          3.96086842e-01, 2.46399418e-01, 2.25983813e-01, 3.93492013e-01,
          3.93492013e-01, 3.93492013e-01, 9.76638794e-02, 3.93492013e-01,
          3.93492013e-01, 3.17127168e-01, 3.32778692e-01, 3.32778692e-01,
          3.32778692e-01, 3.32778692e-01, 3.32778692e-01, 3.32778692e-01,
          3.32778692e-01, 3.32778692e-01, 3.32778692e-01, 3.47964376e-01,
          3.47964376e-01, 3.47964376e-01, 3.47964376e-01, 3.47964376e-01,
          3.47964376e-01, 1.67002127e-01, 3.47964376e-01, 3.47964376e-01,
          3.18216562e-01, 1.86858609e-01, 1.93304420e-01, 4.02949631e-01,
          4.02949631e-01, 1.80460081e-01, 3.74687403e-01, 4.02949631e-01,
          4.02949631e-01, 3.32778692e-01, 3.32778692e-01, 3.32778692e-01,
          3.32778692e-01, 3.32778692e-01, 3.32778692e-01, 3.32778692e-01,
          3.32778692e-01, 3.32778692e-01, 3.91126841e-01, 3.91126841e-01,
          3.91126841e-01, 2.24193126e-01, 3.91126841e-01, 3.91126841e-01,
          1.95664585e-01, 7.43222088e-02, 3.70297760e-01, 4.40737575e-01,
          4.40737575e-01, 3.01163286e-01, 9.24579054e-02, 3.25140178e-01,
          4.40737575e-01, 3.01632851e-01, 2.36740604e-01, 2.46690705e-01 ]
      - [ 2.21095428e-01, 3.70601386e-01, 1.40207978e-02, 4.76515433e-03,
          1.28282756e-01, 6.28341615e-01, 6.28341615e-01, 2.41688658e-02,
          2.47363187e-02, 4.68417257e-01, 4.68417257e-01, 1.23799704e-01,
          8.02692622e-02, 4.68417257e-01, 4.68417257e-01, 3.00414115e-01,
          1.99488103e-02, 7.24307671e-02, 3.58835578e-01, 3.21960926e-01,
          3.58835578e-01, 2.42086276e-01, 3.58835578e-01, 3.58835578e-01,
          3.58835578e-01, 2.48137981e-01, 3.58835578e-01, 3.13007861e-01,
          4.78459686e-01, 2.52328843e-01, 1.14503793e-01, 3.32695425e-01,
          4.78459686e-01, 4.78459686e-01, 1.42136514e-01, 5.29728197e-02,
          3.40099007e-01, 3.64205092e-01, 3.18297535e-01, 3.64205092e-01,
          3.11073005e-01, 3.64205092e-01, 3.64205092e-01, 3.64205092e-01,
          1.39238775e-01, 2.94510752e-01, 3.39115709e-01, 3.39115709e-01,
          3.39115709e-01, 3.39115709e-01, 3.39115709e-01, 3.39115709e-01,
          3.39115709e-01, 3.23850155e-01, 1.33899376e-01, 3.84163469e-01,
          3.84163469e-01, 3.84163469e-01, 1.76829427e-01, 3.84163469e-01,
          3.84163469e-01, 3.84163469e-01, 2.47941166e-01, 3.63106936e-01,
          2.97327518e-01, 2.79308766e-01, 1.97168306e-01, 3.63106936e-01,
          3.63106936e-01, 3.63106936e-01, 3.63106936e-01, 3.63106936e-01,
          4.07121271e-01, 2.60972112e-01, 8.35281909e-02, 3.79076749e-01,
          4.07121271e-01, 4.07121271e-01, 6.24770708e-02, 3.32048267e-01,
          4.07121271e-01, 1.33899376e-01, 3.84163469e-01, 3.84163469e-01,
          3.84163469e-01, 1.76829427e-01, 3.84163469e-01, 3.84163469e-01,
          3.84163469e-01, 2.47941166e-01, 3.63106936e-01, 2.97327518e-01,
          2.79308766e-01, 1.97168306e-01, 3.63106936e-01, 3.63106936e-01,
          3.63106936e-01, 3.63106936e-01, 3.63106936e-01, 4.07121271e-01,
          2.60972112e-01, 8.35281909e-02, 3.79076749e-01, 4.07121271e-01,
          4.07121271e-01, 6.24770708e-02, 3.32048267e-01, 4.07121271e-01,
          3.61618549e-01, 3.54237050e-01, 4.00994509e-01, 4.00994509e-01,
          1.93005465e-02, 7.69381374e-02, 4.00994509e-01, 4.00994509e-01,
          3.00439417e-01, 3.32829088e-01, 3.32829088e-01, 3.32829088e-01,
          3.32829088e-01, 3.32829088e-01, 3.32829088e-01, 3.32829088e-01,
          3.32829088e-01, 3.32374573e-01, 5.00438273e-01, 1.47789851e-01,
          6.14294820e-02, 2.50895709e-01, 5.00438273e-01, 3.69138271e-01,
          9.87754092e-02, 9.54087451e-02, 5.00438273e-01, 7.25917444e-02,
          2.56515704e-02, 1.69756636e-01, 5.59295356e-01, 5.24429083e-02,
          1.60225527e-03, 1.35952786e-01, 5.59295356e-01, 5.59295356e-01,
          4.35877621e-01, 5.48033044e-02, 1.48400798e-01, 4.35877621e-01,
          4.35877621e-01, 2.39459127e-02, 1.41774148e-01, 4.35877621e-01,
          4.35877621e-01, 5.52801788e-01, 9.99929830e-02, 3.29142176e-02,
          1.90713465e-01, 5.52801788e-01, 1.65879175e-01, 1.58538241e-02,
          4.98954654e-02, 5.52801788e-01, 3.58835578e-01, 3.21960926e-01,
          3.58835578e-01, 2.42086276e-01, 3.58835578e-01, 3.58835578e-01,
          3.58835578e-01, 2.48137981e-01, 3.58835578e-01, 2.96395957e-01,
          1.21013537e-01, 4.06832844e-01, 4.06832844e-01, 4.06832844e-01,
          1.79061666e-01, 1.83883503e-01, 4.06832844e-01, 4.06832844e-01,
          1.05351821e-01, 4.34743725e-02, 3.35054368e-01, 5.25951803e-01,
          1.54302731e-01, 4.16055620e-02, 1.18661873e-01, 5.25951803e-01,
          5.25951803e-01, 2.94510752e-01, 3.39115709e-01, 3.39115709e-01,
          3.39115709e-01, 3.39115709e-01, 3.39115709e-01, 3.39115709e-01,
          3.39115709e-01, 3.23850155e-01, 2.19053969e-01, 3.48679870e-01,
          3.48679870e-01, 3.48679870e-01, 3.48679870e-01, 3.48679870e-01,
          3.48679870e-01, 3.48679870e-01, 3.12230915e-01, 4.97532450e-02,
          2.82742649e-01, 3.76400232e-01, 3.76400232e-01, 3.76400232e-01,
          2.52503425e-01, 3.76400232e-01, 3.76400232e-01, 3.76400232e-01,
          4.07121271e-01, 2.60972112e-01, 8.35281909e-02, 3.79076749e-01,
          4.07121271e-01, 4.07121271e-01, 6.24770708e-02, 3.32048267e-01,
          4.07121271e-01, 3.78921241e-01, 3.78921241e-01, 3.78921241e-01,
          3.78921241e-01, 3.78921241e-01, 1.92540333e-01, 2.30810836e-01,
          2.10667834e-01, 3.78921241e-01, 2.81964779e-01, 3.89628828e-01,
          3.89628828e-01, 3.72542799e-01, 6.54240400e-02, 3.89628828e-01,
          3.89628828e-01, 3.89628828e-01, 1.20340638e-01, 4.07121271e-01,
          2.60972112e-01, 8.35281909e-02, 3.79076749e-01, 4.07121271e-01,
          4.07121271e-01, 6.24770708e-02, 3.32048267e-01, 4.07121271e-01,
          3.78921241e-01, 3.78921241e-01, 3.78921241e-01, 3.78921241e-01,
          3.78921241e-01, 1.92540333e-01, 2.30810836e-01, 2.10667834e-01,
          3.78921241e-01, 2.81964779e-01, 3.89628828e-01, 3.89628828e-01,
          3.72542799e-01, 6.54240400e-02, 3.89628828e-01, 3.89628828e-01,
          3.89628828e-01, 1.20340638e-01, 5.00438273e-01, 1.47789851e-01,
          6.14294820e-02, 2.50895709e-01, 5.00438273e-01, 3.69138271e-01,
          9.87754092e-02, 9.54087451e-02, 5.00438273e-01, 3.37433070e-01,
          3.37433070e-01, 3.37433070e-01, 3.37433070e-01, 3.37433070e-01,
          3.37433070e-01, 3.37433070e-01, 2.92813957e-01, 3.37433070e-01,
          4.11663830e-01, 4.11663830e-01, 4.11663830e-01, 1.90094814e-01,
          1.24334700e-01, 4.11663830e-01, 4.11663830e-01, 2.83485919e-01,
          1.28812477e-01, 5.52801788e-01, 9.99929830e-02, 3.29142176e-02,
          1.90713465e-01, 5.52801788e-01, 1.65879175e-01, 1.58538241e-02,
          4.98954654e-02, 5.52801788e-01, 4.40410525e-01, 4.40410525e-01,
          2.30147868e-01, 7.99743980e-02, 4.40410525e-01, 4.40410525e-01,
          1.41723990e-01, 1.98493693e-02, 3.74047250e-01, 3.90182912e-01,
          5.20997465e-01, 5.73936217e-02, 3.01726665e-02, 9.32629779e-02,
          5.20997465e-01, 5.20997465e-01, 9.39859152e-02, 8.06439891e-02 ]
      - [ 5.79583645e-01, 1.92375451e-01, 7.05161178e-03, 8.32259282e-03,
          1.34428337e-01, 4.00363266e-01, 3.17973644e-01, 7.60394186e-02,
          5.79583645e-01, 5.05322576e-01, 1.36123359e-01, 3.53664272e-02,
          3.79819572e-02, 4.87390786e-01, 5.05322576e-01, 3.93521488e-01,
          7.58202896e-02, 2.54697621e-01, 5.28383970e-01, 5.28383970e-01,
          7.55322650e-02, 1.37884561e-02, 2.51476884e-01, 5.28383970e-01,
          2.19096139e-01, 1.17308209e-02, 1.99693784e-01, 4.09307145e-02,
          1.45734593e-01, 2.80248355e-02, 8.99058674e-03, 2.41032206e-02,
          6.92568481e-01, 6.92568481e-01, 9.64337289e-02, 1.11187799e-02,
          4.79820400e-01, 4.79820400e-01, 3.14183272e-02, 4.06549312e-02,
          2.31095180e-01, 4.79820400e-01, 4.79820400e-01, 1.34261653e-01,
          1.50301512e-02, 4.93563384e-01, 4.93563384e-01, 5.22756986e-02,
          1.19824648e-01, 4.93563384e-01, 4.93563384e-01, 3.00705042e-02,
          1.80371981e-02, 4.82798889e-02, 2.73830831e-01, 5.35343885e-01,
          9.48532149e-02, 5.48514770e-03, 1.72310039e-01, 5.35343885e-01,
          5.35343885e-01, 1.38519913e-01, 4.45585735e-02, 4.72849578e-01,
          4.72849578e-01, 2.70855092e-02, 1.53920604e-02, 4.72849578e-01,
          4.72849578e-01, 2.07163289e-01, 8.02142099e-02, 2.24963754e-01,
          4.67261553e-01, 4.67261553e-01, 1.01372801e-01, 1.43799499e-01,
          4.67261553e-01, 4.67261553e-01, 1.89733580e-01, 9.19918567e-02,
          2.15831578e-01, 2.73830831e-01, 5.35343885e-01, 9.48532149e-02,
          5.48514770e-03, 1.72310039e-01, 5.35343885e-01, 5.35343885e-01,
          1.38519913e-01, 4.45585735e-02, 4.72849578e-01, 4.72849578e-01,
          2.70855092e-02, 1.53920604e-02, 4.72849578e-01, 4.72849578e-01,
          2.07163289e-01, 8.02142099e-02, 2.24963754e-01, 4.67261553e-01,
          4.67261553e-01, 1.01372801e-01, 1.43799499e-01, 4.67261553e-01,
          4.67261553e-01, 1.89733580e-01, 9.19918567e-02, 2.15831578e-01,
          4.02053356e-01, 4.02053356e-01, 4.02053356e-01, 3.05670053e-02,
          1.15579091e-01, 4.02053356e-01, 4.02053356e-01, 3.43875527e-01,
          2.34958932e-01, 4.75728244e-01, 4.10642773e-01, 4.18052413e-02,
          3.05051752e-03, 1.78168923e-01, 4.75728244e-01, 3.64733726e-01,
          1.61828563e-01, 4.25753295e-01, 4.10303831e-01, 4.10303831e-01,
          3.02023113e-01, 2.48642173e-02, 1.38763830e-01, 4.10303831e-01,
          4.10303831e-01, 3.37074012e-01, 3.12720150e-01, 1.27397165e-01,
          4.56170171e-01, 4.56170171e-01, 2.01281711e-01, 2.13190958e-01,
          4.56170171e-01, 4.56170171e-01, 2.45370165e-01, 2.60265805e-02,
          4.74161059e-01, 4.74161059e-01, 8.43219012e-02, 2.98975836e-02,
          1.74756914e-01, 4.74161059e-01, 4.74161059e-01, 2.35719815e-01,
          4.29119095e-02, 4.03919697e-01, 4.03919697e-01, 1.34139419e-01,
          2.49880776e-02, 1.85392141e-01, 4.03919697e-01, 4.03919697e-01,
          4.03919697e-01, 3.56681049e-01, 5.28383970e-01, 5.28383970e-01,
          7.55322650e-02, 1.37884561e-02, 2.51476884e-01, 5.28383970e-01,
          2.19096139e-01, 1.17308209e-02, 1.99693784e-01, 5.19255936e-01,
          3.76232475e-01, 2.85963761e-03, 1.95359122e-02, 1.73088342e-01,
          5.19255936e-01, 1.07769258e-01, 4.91890982e-02, 5.19255936e-01,
          4.22326952e-01, 4.22326952e-01, 1.09767467e-01, 9.87222195e-02,
          6.24595396e-02, 4.22326952e-01, 4.22326952e-01, 2.79794008e-01,
          4.22326952e-01, 4.93563384e-01, 4.93563384e-01, 5.22756986e-02,
          1.19824648e-01, 4.93563384e-01, 4.93563384e-01, 3.00705042e-02,
          1.80371981e-02, 4.82798889e-02, 3.38696539e-01, 5.01428306e-01,
          5.56760281e-02, 1.25900298e-01, 5.01428306e-01, 5.01428306e-01,
          3.18183094e-01, 6.88392073e-02, 3.24892886e-02, 4.86360997e-01,
          4.86360997e-01, 4.81346697e-02, 6.11408567e-03, 3.18665542e-02,
          4.86360997e-01, 4.86360997e-01, 2.07863286e-01, 4.87570204e-02,
          4.67261553e-01, 4.67261553e-01, 1.01372801e-01, 1.43799499e-01,
          4.67261553e-01, 4.67261553e-01, 1.89733580e-01, 9.19918567e-02,
          2.15831578e-01, 3.22485805e-01, 4.71595913e-01, 4.71595913e-01,
          3.12529176e-01, 3.35038304e-01, 4.71595913e-01, 1.17180295e-01,
          1.39055168e-02, 1.53145976e-02, 3.56339693e-01, 5.02239525e-01,
          3.14506769e-01, 2.21170597e-02, 2.41009500e-02, 5.02239525e-01,
          5.02239525e-01, 1.06084220e-01, 5.83451567e-03, 4.67261553e-01,
          4.67261553e-01, 1.01372801e-01, 1.43799499e-01, 4.67261553e-01,
          4.67261553e-01, 1.89733580e-01, 9.19918567e-02, 2.15831578e-01,
          3.22485805e-01, 4.71595913e-01, 4.71595913e-01, 3.12529176e-01,
          3.35038304e-01, 4.71595913e-01, 1.17180295e-01, 1.39055168e-02,
          1.53145976e-02, 3.56339693e-01, 5.02239525e-01, 3.14506769e-01,
          2.21170597e-02, 2.41009500e-02, 5.02239525e-01, 5.02239525e-01,
          1.06084220e-01, 5.83451567e-03, 4.10303831e-01, 4.10303831e-01,
          3.02023113e-01, 2.48642173e-02, 1.38763830e-01, 4.10303831e-01,
          4.10303831e-01, 3.37074012e-01, 3.12720150e-01, 2.71678746e-01,
          4.84054327e-01, 4.84054327e-01, 1.49157807e-01, 1.01549856e-01,
          4.84054327e-01, 4.22796577e-01, 7.56140798e-02, 3.73529494e-02,
          5.27821004e-01, 5.37032485e-01, 1.06156915e-01, 4.60239546e-03,
          1.25115160e-02, 5.37032485e-01, 3.56887400e-01, 2.04526018e-02,
          5.44340350e-04, 4.03919697e-01, 4.03919697e-01, 1.34139419e-01,
          2.49880776e-02, 1.85392141e-01, 4.03919697e-01, 4.03919697e-01,
          4.03919697e-01, 3.56681049e-01, 5.54387033e-01, 5.54387033e-01,
          1.78689405e-01, 3.87666263e-02, 9.77735221e-02, 5.54387033e-01,
          1.68401763e-01, 2.27093380e-02, 2.36960668e-02, 5.31624377e-01,
          5.31624377e-01, 5.50569594e-02, 3.62635255e-02, 5.31624377e-01,
          3.75671536e-01, 3.64096276e-02, 3.00081214e-03, 2.70695123e-03 ]
      - [ 3.27377260e-01, 3.82912308e-01, 3.82912308e-01, 3.82912308e-01,
          2.39601627e-01, 3.82912308e-01, 3.82912308e-01, 8.05058405e-02,
          3.03313881e-01, 4.58911330e-01, 3.28955173e-01, 1.73057437e-01,
          8.35553780e-02, 3.27652782e-01, 4.58911330e-01, 4.58911330e-01,
          1.37263834e-01, 3.03772390e-01, 3.99375141e-01, 3.99375141e-01,
          3.99375141e-01, 1.34357721e-01, 3.99375141e-01, 3.99375141e-01,
          2.66127944e-01, 6.65969625e-02, 3.24339926e-01, 4.08833414e-01,
          4.08833414e-01, 4.08833414e-01, 2.66993433e-01, 2.48070851e-01,
          4.08833414e-01, 4.08833414e-01, 1.06309876e-01, 1.26750886e-01,
          3.71691972e-01, 3.71691972e-01, 3.71691972e-01, 3.71691972e-01,
          2.60391504e-01, 1.99986219e-01, 3.54556859e-01, 2.68334121e-01,
          3.71691972e-01, 4.13036019e-01, 4.13036019e-01, 4.13036019e-01,
          4.39883880e-02, 1.97068155e-01, 7.61712566e-02, 4.13036019e-01,
          3.87095809e-01, 3.42144579e-01, 3.99780124e-01, 3.99780124e-01,
          3.99780124e-01, 3.16364616e-01, 1.34270862e-01, 3.06606144e-01,
          3.99780124e-01, 2.24315941e-01, 3.07033271e-01, 3.42070878e-01,
          3.42070878e-01, 3.42070878e-01, 3.42070878e-01, 2.45931581e-01,
          3.42070878e-01, 3.42070878e-01, 3.42070878e-01, 3.42070878e-01,
          3.83854598e-01, 4.30528224e-01, 4.30528224e-01, 4.82942611e-02,
          9.92884114e-02, 4.04896528e-01, 4.30528224e-01, 3.31800938e-01,
          7.78965726e-02, 3.99780124e-01, 3.99780124e-01, 3.99780124e-01,
          3.16364616e-01, 1.34270862e-01, 3.06606144e-01, 3.99780124e-01,
          2.24315941e-01, 3.07033271e-01, 3.42070878e-01, 3.42070878e-01,
          3.42070878e-01, 3.42070878e-01, 2.45931581e-01, 3.42070878e-01,
          3.42070878e-01, 3.42070878e-01, 3.42070878e-01, 3.83854598e-01,
          4.30528224e-01, 4.30528224e-01, 4.82942611e-02, 9.92884114e-02,
          4.04896528e-01, 4.30528224e-01, 3.31800938e-01, 7.78965726e-02,
          1.31092399e-01, 4.15901333e-01, 4.15901333e-01, 4.15901333e-01,
          2.17809901e-01, 9.96043459e-02, 4.15901333e-01, 4.15901333e-01,
          2.37546578e-01, 2.32235536e-01, 3.43263179e-01, 3.43263179e-01,
          3.43263179e-01, 3.43263179e-01, 3.43263179e-01, 3.43263179e-01,
          3.43263179e-01, 3.43263179e-01, 3.13472778e-01, 4.48375851e-01,
          4.48375851e-01, 4.02510837e-02, 4.06762175e-02, 4.48375851e-01,
          4.48375851e-01, 2.90275633e-01, 7.45510012e-02, 1.01871990e-01,
          8.72024447e-02, 4.78833288e-01, 4.78833288e-01, 2.22926036e-01,
          5.01343049e-02, 8.88843834e-02, 4.78833288e-01, 4.78833288e-01,
          2.92077333e-01, 4.24932301e-01, 4.24932301e-01, 4.24932301e-01,
          4.24932301e-01, 1.57999009e-01, 2.58266985e-01, 1.75116941e-01,
          2.56602407e-01, 1.55797392e-01, 4.28803682e-01, 4.28803682e-01,
          1.19143166e-01, 2.81888634e-01, 4.28803682e-01, 4.28803682e-01,
          3.73561800e-01, 5.24265841e-02, 3.99375141e-01, 3.99375141e-01,
          3.99375141e-01, 1.34357721e-01, 3.99375141e-01, 3.99375141e-01,
          2.66127944e-01, 6.65969625e-02, 3.24339926e-01, 3.64903957e-01,
          3.64903957e-01, 3.64903957e-01, 1.85504153e-01, 3.26020926e-01,
          2.38167048e-01, 3.64903957e-01, 3.64903957e-01, 3.64903957e-01,
          8.71833861e-02, 8.69933441e-02, 2.42553681e-01, 4.86420125e-01,
          1.52807757e-01, 1.01440169e-01, 4.21528906e-01, 4.86420125e-01,
          4.86420125e-01, 4.13036019e-01, 4.13036019e-01, 4.13036019e-01,
          4.39883880e-02, 1.97068155e-01, 7.61712566e-02, 4.13036019e-01,
          3.87095809e-01, 3.42144579e-01, 1.79559723e-01, 4.45602000e-01,
          4.45602000e-01, 1.11675691e-02, 1.50418207e-02, 4.45602000e-01,
          4.45602000e-01, 4.09131706e-01, 3.63743603e-02, 3.68497521e-01,
          3.68497521e-01, 3.65150213e-01, 2.14499652e-01, 5.95289841e-02,
          3.68497521e-01, 3.68497521e-01, 3.68497521e-01, 3.66712332e-01,
          3.83854598e-01, 4.30528224e-01, 4.30528224e-01, 4.82942611e-02,
          9.92884114e-02, 4.04896528e-01, 4.30528224e-01, 3.31800938e-01,
          7.78965726e-02, 2.86639959e-01, 3.75697315e-01, 4.31809038e-01,
          6.07509390e-02, 2.86156125e-02, 4.31809038e-01, 4.31809038e-01,
          4.31809038e-01, 1.48424760e-01, 3.68708700e-01, 3.68708700e-01,
          3.68708700e-01, 2.25189790e-01, 1.35372743e-01, 3.68708700e-01,
          3.68708700e-01, 3.68708700e-01, 3.34070921e-01, 3.83854598e-01,
          4.30528224e-01, 4.30528224e-01, 4.82942611e-02, 9.92884114e-02,
          4.04896528e-01, 4.30528224e-01, 3.31800938e-01, 7.78965726e-02,
          2.86639959e-01, 3.75697315e-01, 4.31809038e-01, 6.07509390e-02,
          2.86156125e-02, 4.31809038e-01, 4.31809038e-01, 4.31809038e-01,
          1.48424760e-01, 3.68708700e-01, 3.68708700e-01, 3.68708700e-01,
          2.25189790e-01, 1.35372743e-01, 3.68708700e-01, 3.68708700e-01,
          3.68708700e-01, 3.34070921e-01, 3.13472778e-01, 4.48375851e-01,
          4.48375851e-01, 4.02510837e-02, 4.06762175e-02, 4.48375851e-01,
          4.48375851e-01, 2.90275633e-01, 7.45510012e-02, 3.67992848e-01,
          3.41711402e-01, 3.67992848e-01, 2.86133736e-01, 2.00656086e-01,
          3.67992848e-01, 3.67992848e-01, 3.67992848e-01, 2.83421606e-01,
          3.47240567e-01, 3.33722681e-01, 3.47240567e-01, 2.02799648e-01,
          3.47240567e-01, 3.47240567e-01, 3.47240567e-01, 3.47240567e-01,
          3.47240567e-01, 1.55797392e-01, 4.28803682e-01, 4.28803682e-01,
          1.19143166e-01, 2.81888634e-01, 4.28803682e-01, 4.28803682e-01,
          3.73561800e-01, 5.24265841e-02, 3.64201158e-01, 3.64201158e-01,
          3.64201158e-01, 3.64201158e-01, 3.64201158e-01, 3.64201158e-01,
          3.64201158e-01, 1.84208021e-01, 1.84204489e-01, 3.07058692e-01,
          3.04520637e-01, 4.96078506e-02, 7.08469450e-02, 3.57137620e-01,
          5.77016234e-01, 5.77016234e-01, 6.47281483e-02, 4.59112264e-02 ]
      - [ 3.58947486e-01, 3.58947486e-01, 1.46140739e-01, 3.58947486e-01,
          2.70469308e-01, 3.58947486e-01, 3.58947486e-01, 3.58947486e-01,
          3.58947486e-01, 4.68604535e-01, 4.68604535e-01, 1.29219860e-01,
          1.45733327e-01, 4.68604535e-01, 4.68604535e-01, 2.30284959e-01,
          5.67345098e-02, 1.50906250e-01, 4.08554316e-01, 1.81954950e-01,
          3.15916598e-01, 3.71970832e-01, 4.08554316e-01, 2.67439276e-01,
          3.59898448e-01, 1.51145265e-01, 4.08554316e-01, 3.65291208e-01,
          3.84722650e-01, 3.84722650e-01, 2.62225062e-01, 3.84722650e-01,
          3.84722650e-01, 3.84722650e-01, 2.06534207e-01, 1.06032163e-01,
          2.35417992e-01, 3.74610275e-01, 3.74610275e-01, 3.48316520e-01,
          3.10461998e-01, 3.74610275e-01, 3.74610275e-01, 3.74610275e-01,
          1.46493256e-01, 3.10774356e-01, 2.96119153e-01, 3.54017705e-01,
          3.54017705e-01, 3.54017705e-01, 3.54017705e-01, 3.54017705e-01,
          3.12462628e-01, 2.96513259e-01, 1.36837691e-01, 4.08881813e-01,
          4.08881813e-01, 3.47578049e-01, 9.32277292e-02, 4.08881813e-01,
          4.08881813e-01, 4.08881813e-01, 1.08477779e-01, 3.62754345e-01,
          1.70981109e-01, 3.62754345e-01, 2.43028358e-01, 3.62754345e-01,
          3.62754345e-01, 3.44287723e-01, 3.62754345e-01, 3.62754345e-01,
          4.51866359e-01, 3.90792489e-02, 8.75587389e-02, 4.51866359e-01,
          4.51866359e-01, 3.42854142e-01, 9.57818776e-02, 2.06970543e-01,
          4.51866359e-01, 1.36837691e-01, 4.08881813e-01, 4.08881813e-01,
          3.47578049e-01, 9.32277292e-02, 4.08881813e-01, 4.08881813e-01,
          4.08881813e-01, 1.08477779e-01, 3.62754345e-01, 1.70981109e-01,
          3.62754345e-01, 2.43028358e-01, 3.62754345e-01, 3.62754345e-01,
          3.44287723e-01, 3.62754345e-01, 3.62754345e-01, 4.51866359e-01,
          3.90792489e-02, 8.75587389e-02, 4.51866359e-01, 4.51866359e-01,
          3.42854142e-01, 9.57818776e-02, 2.06970543e-01, 4.51866359e-01,
          3.07997853e-01, 2.97567397e-01, 4.08734083e-01, 4.08734083e-01,
          2.60088444e-02, 8.16021785e-02, 4.08734083e-01, 4.08734083e-01,
          3.70024711e-01, 3.42206568e-01, 3.42206568e-01, 3.42206568e-01,
          3.42206568e-01, 2.69910693e-01, 3.42206568e-01, 3.42206568e-01,
          3.42206568e-01, 3.22477609e-01, 4.87343639e-01, 1.53237090e-01,
          6.92112446e-02, 3.98020685e-01, 4.87343639e-01, 2.81930774e-01,
          3.83410193e-02, 1.22367464e-01, 4.87343639e-01, 6.41703904e-02,
          4.29334380e-02, 2.74448037e-01, 5.47486961e-01, 3.75093706e-02,
          7.98869785e-03, 1.12040319e-01, 5.47486961e-01, 5.47486961e-01,
          2.85958171e-01, 5.55549301e-02, 1.77315310e-01, 4.99085993e-01,
          3.09918851e-01, 9.91550088e-03, 1.87903464e-01, 4.99085993e-01,
          4.99085993e-01, 5.39309263e-01, 6.85712546e-02, 2.38587558e-02,
          2.89772749e-01, 5.39309263e-01, 1.42378256e-01, 9.54301655e-03,
          1.11572415e-01, 5.39309263e-01, 4.08554316e-01, 1.81954950e-01,
          3.15916598e-01, 3.71970832e-01, 4.08554316e-01, 2.67439276e-01,
          3.59898448e-01, 1.51145265e-01, 4.08554316e-01, 2.78401375e-01,
          5.17910421e-02, 1.97625816e-01, 4.58545893e-01, 4.58545893e-01,
          1.05535671e-01, 1.54851556e-01, 4.58545893e-01, 4.58545893e-01,
          1.67191222e-01, 7.30949789e-02, 2.26087198e-01, 3.02602023e-01,
          6.04838133e-02, 4.36157407e-03, 3.80258895e-02, 6.37390733e-01,
          6.37390733e-01, 3.10774356e-01, 2.96119153e-01, 3.54017705e-01,
          3.54017705e-01, 3.54017705e-01, 3.54017705e-01, 3.54017705e-01,
          3.12462628e-01, 2.96513259e-01, 9.08984542e-02, 3.58864486e-01,
